{"network": [{"weights": [[0.05738174042259632, -0.44791527534360814, -0.19671562928695102, -0.25234769184516964, 0.07027300322849579, 0.21335973936433045, 0.15495406844523407, -0.4611541387923309, -0.08303010278030637, -0.2870217134929614, -0.401650585265021, 0.08796197855736475, -0.4344331995836615, -0.34850080045670934, 0.11710263703118245, 0.2769003036630044, -0.16391266304298382, 0.06276503618212721, 0.2274347786823074, -0.1583689148907477, 0.06329294038336145, -0.11686187164094991, -0.22746730743376284, -0.3959733303631677, 0.15333454616739378, -0.09555208723201458, -0.47015339430275566, -0.4826224527139827, -0.025978494910089397, 0.07803478777219827], [0.08477601123857065, 0.06449272779811713, -0.10226914087087749, 0.19899117306738012, -0.15717383336114657, 0.07100101665756353, 0.08035718237425488, -0.11935339874927808, 0.24691629983098867, 0.1258838732814419, -0.11432403250754887, -0.22662064830443823, -0.37250596681723525, -0.3415724287219548, -0.19158699662367423, 0.02640609725330987, -0.2698746684418351, -0.19149274127815757, 0.1698295670762282, 0.09032304531426519, -0.31129159308502397, -0.38472672361043897, -0.35018974582490303, 0.10649446684895485, -0.005142403641181414, 0.09011826549516808, -0.4133223470621844, -0.04008682673774278, -0.4030779177560817, -0.06645161080862474], [0.4525477072698283, 0.22418919274767038, 0.12961480564455077, 0.24924151730972116, 0.3344463180730102, 0.11476252606353768, -0.047099018769615086, -0.12696009920313706, -0.159908203871335, -0.2274389522238018, 0.0755193545470714, 0.2434609967513137, 0.4399419546421827, 0.06725723111274551, 0.0554440226628979, -0.3680972149472466, 0.2081969861863749, -0.06706615003803901, -0.29123767498506054, -0.4277487301051274, 0.2719969651791085, 0.09930512454088021, 0.2397300071971186, 0.5090819608334446, 0.09972145110416406, -0.23582954763132832, 0.539877175149011, 0.2156907060766539, -0.1103429388474528, -0.3262409159766872], [-0.17145873000575074, 0.21636728311997513, 0.3121248902865806, 0.06123551932330896, -0.2929159998885422, -0.1510831933680838, 0.455729201808016, 0.16268087765604147, 0.3038297051178236, 0.15394445179903266, -0.16282033687594852, 0.06904322020717403, 0.24931801812183577, 0.17561257086411, -0.22587623715608227, -0.1000798379568404, -0.34604603253694377, -0.08025950696083432, -0.092964699647269, 0.1352544089286638, 0.45330850615458557, 0.030176064269958877, 0.14831947212937466, -0.055506838706571165, 0.3899987319343254, 0.23516928500266937, -0.03063758874991987, 0.24162529957224738, 0.1976837360174711, -0.29668961973335334], [0.007893755817716366, -0.1263757516445763, 0.03220483162500863, -0.1671236570962918, -0.37022961340810684, -0.060719028593364734, -0.5134459359428359, 0.09267519707817329, 0.26268620167349105, 0.37297552217288293, -0.45118676986511314, -0.20947201862412324, 0.059082397378928245, 0.08984455716966154, -0.19445839591730157, 0.23995233863339865, -0.2890012446123091, 0.15771886931216186, 0.2326316617544433, -0.042995145964707805, -0.28572645088305615, -0.19198572002315112, -0.3937236602664623, 0.009692536452467721, -0.12979468497436242, -0.16661516717054412, -0.14808089008382436, -0.04562721756388502, -0.41128776793401806, -0.061975556310085], [0.15121263243411268, -0.16864366178609935, -0.23146796351934573, -0.20246545048397258, -0.26295968853060153, -0.03545626363338518, -0.28239638096423, -0.14848217907371022, -0.03246774382954792, 0.022449565499901077, -0.6732205031558806, 0.1999721783740802, -0.44259500329901785, 0.025762962788368163, 0.21579313897616906, -0.010482743576819742, -0.20920254459309037, 0.05046050076647129, -0.02639094788992865, -0.022645168839308102, 0.011336556607943445, -0.28520904760984406, -0.26761686476392355, -0.08713882915404378, 0.12240830795776286, -0.09489251379585345, -0.4702203977437184, -0.24293600663469395, -0.10208924601312763, 0.12515656364973377], [0.09382769176988125, -0.002169142696324115, 0.28426235324980215, -0.3683671808672824, -0.10305441484170849, -0.06595866431255344, 0.16643508263772674, -0.30971708703415485, -0.20787901085192817, 0.02038152815292657, -0.24052123728595196, -0.09842556460490047, -0.29815629732981536, 0.17407879555088335, 0.00023669722808444886, 0.43061323852763583, 0.08079350223900912, -0.333529350743749, 0.39827421407353714, 0.38232921847342877, 0.1965627747227568, 0.11396555812168235, 0.13834967637475068, -0.3777496028583345, -0.08478712667058348, -0.1890742063978224, -0.18612422444474183, -0.45005432410295415, -0.2154408945018252, 0.36534243732484456], [-0.14684021935125358, 0.23417798154273295, -0.011792612707007684, -0.028627276844713254, 0.36616071503934156, 0.34774585578744655, 0.09351817850056098, 0.22262889260133809, -0.2385949379673859, -0.15147703442247804, 0.41194943123925176, 0.03912496244488616, 0.07268693657611018, 0.23031041009197456, -0.3181704336626072, 0.004120665680161535, 0.0068434737105485186, 0.2758820384381915, -0.24021735639025527, 0.2889135057739585, -0.24800562730144546, -0.16140747451510046, 0.11121816122841408, 0.18082238308183743, -0.13717469525512674, -0.27570909308123714, 0.3411738739661678, -0.1164934633465234, 0.13959633023852158, 0.08983052833936087], [0.10626857133556648, 0.19425123949135883, 0.17108105382947225, 0.5019989315938718, -0.14742411089231852, 0.08329546726711849, 0.08805134278582688, 0.21709072869369772, 0.1714483786271035, -0.2370344141983384, 0.15011557697222697, -0.14641309222668475, -0.15045687067775435, 0.21481553983186266, 0.3269464526240543, 0.034829406324111765, -0.3057805532684374, -0.24395466941465127, -0.15517912284255087, 0.055884435324553464, 0.6002958206260056, 0.5837503858114247, 0.17118981186962703, 0.07530150576329202, 0.4608223629391782, 0.12808118585165096, 0.38683540234554525, 0.6594069443957663, 0.49499320406862457, -0.3567894290989196], [0.13577375707467032, -0.29624807670245845, 0.03782033003910277, 0.21419633403215077, -0.29175401999011547, -0.15941373116952834, -0.3831292909865745, -0.10628545356321446, -0.04890921790198833, 0.1902243571472566, -0.12236097412069669, -0.11439194739505533, -0.07969871237551951, -0.3632576688048494, -0.004272371595168856, 0.5306001827622552, 0.30015664278143117, -0.3046261278635599, 0.0977888498197647, 0.04377648010308231, -0.5433833338364227, -0.031983222709158474, -0.04126468742868854, -0.3508661463630386, 0.08679628719124902, 0.0974102954051651, -0.19320592042359944, -0.490171868116239, -0.36231142744360506, 0.32910500369513346], [0.34717189643873564, 0.23264911229968144, 0.2864883212227498, 0.13477118455779996, -0.15446559541884552, -0.41097466109403297, 0.04019420323625001, 0.48960119615770076, 0.24742275664372607, 0.13290511825481566, 0.6043658764499698, -0.3579217857552269, 0.0012478850642011357, -0.06730136145467787, 0.23468022457632173, -0.09240757112786947, -0.13815474890173843, 0.0705437752368233, -0.2697086931704137, -0.022739399569088273, 0.45832514395372737, 0.6999256749117582, 0.3606920075496688, 0.4697831587612823, -0.13612474457445123, 0.09042321692863649, 0.10138354129190219, 0.5265519456476724, 0.4979551176617304, 0.19205310106876544], [0.32531751369017187, 0.0026380607659113064, 0.29905552144449643, -0.17081224487794167, 0.29502869698205825, 0.19393223210419988, -0.07208485363177178, 0.392444398947929, -0.018262596421342717, -0.2320876998736629, 0.44234592646624654, -0.2618207462995813, -0.2047298121072492, -0.04850220221601265, -0.0956827200229367, 0.06860259246087819, 0.29650173042779204, -0.14847695702401822, 0.12428964637514654, -0.25629390190191353, 0.537054492506835, 0.2949971734510282, 0.4655717578691081, -0.0922952624732666, 0.4447300506792848, -0.2607567400939318, 0.47477021917890355, -0.00945944857326259, -0.05764500524367157, -0.08603234030805108], [0.021301172359515542, -0.2825771599054564, -0.05501999914755266, -0.14813125250859352, -0.16486397498508734, 0.12558521529485245, -0.3536482758705749, -0.07477830586567126, -0.355810466973373, 0.38489718943289275, -0.31910518118284353, 0.28674828767416677, -0.04856152003308459, -0.12963308976533855, -0.08587721613621813, -0.0436396830189113, 0.17238043729008443, -0.13546523048868134, -0.0777271448687749, 0.4548758854008215, -0.10166728395788846, -0.41721456337599916, -0.3438316435102778, -0.3192532570393943, -0.21000087158260874, -0.12157154527975725, -0.4599244979923294, -0.26770284324235116, 0.05844058337441744, 0.13677368525332395], [0.34389232994910146, 0.1529348697448667, -0.09365937783151379, 0.10714538949829375, -0.2266716871227332, -0.15759338300157172, 0.15654898213243, 0.2662919716024701, 0.13058316711963952, 0.02650638552942902, 0.2602641702606021, -0.24794358894819793, 0.1891208708819232, 0.4919559505886812, 0.2537844542755578, -0.37002133141640325, -0.21225925827104114, 0.14080590781026467, 0.03734191562864047, -0.19651713027719228, 0.39475607436148297, 0.35181478861246623, 0.2541373722477966, -0.03065013484069915, -0.06393824920416272, -0.3247922756276152, 0.04947281097249414, 0.1974923991871219, 0.39689881248878606, -0.25875051410360433], [0.040790620768903794, 0.156565341974883, -0.12695854528827452, 0.2532392822927129, 0.006215407485625945, -0.2422121080215832, 0.23921916850733035, -0.1976922479929509, 0.15611227813191444, 0.10417080997848664, -0.07496417445348702, -0.16439894753525133, -0.10453269152849692, 0.49184089677351095, 0.021432061336373435, -0.48198280157669693, -0.2060205554832082, 0.26246649416949985, -0.04089550650952944, 0.051811631707677566, 0.298002366293143, 0.5004271950404522, 0.2085657517369656, 0.4979061849797945, 0.33468383741265645, 0.04716215619601878, 0.28691015296045186, 0.14360224354530404, 0.3661786140297751, -0.029419938668265696], [0.11385472914022532, -0.09255103280327041, -0.17784312003093503, -0.3596289073955811, -0.3527909779146008, 0.15668795685017686, -0.12243401637283617, -0.37369937244312673, 0.049691162644868496, -0.07055866644569106, -0.6999503189046024, 0.04832149216078496, -0.37855582370942487, -0.41740032194064286, 0.040882299833144904, 0.11521764487635273, -0.12870113476927464, 0.11168033230412386, 0.15877349778124583, 0.04637224917207633, -0.4243484861303817, -0.46639739964898014, -0.343765701094654, -0.5503983431598556, -0.4053995652909671, 0.23084591814712374, -0.3362211844171204, -0.2776058280604193, -0.2498447484204625, 0.14215523621876913]], "biases": [0.011649462653374411, 0.00971261953358328, -0.12212443073805958, -0.07453853987980873, 0.06624517928453133, 0.04488031275020296, 0.035667246605149874, -0.019162367358943846, -0.2286409049920839, 0.03458695568006001, -0.14395457048060703, -0.112603086493001, 0.0919520341496582, -0.11709187874335869, -0.1272820101130212, 0.12738165442136729]}, {"weights": [[0.11393149452246283, -0.30540810105304433, -0.2962839009414954, 0.14052646048176531, 0.41105514023679324, 0.5343131007744303, 0.06640842679150598, 0.14673546404135332, -0.1638088011839961, 0.3086949648307222, -0.4959868109529882, -0.38157970246058553, 0.14556243302028962, -0.5542124924818228, -0.3152841449041188, 0.4204606076598641], [-0.17674090509678772, -0.32263065476968206, 0.041327860026086155, -0.2861926147245512, 0.07980388659361659, -0.4620272164806212, -0.131585311036722, 0.09228316051471368, -0.3262525457061805, 0.0403313417959415, -0.19906048759575, 0.02988928188412017, -0.46080113328096933, -0.06176430180650329, -0.1842488090310938, -0.2413405544455819], [-0.2576083406331201, -0.35930869205917537, 0.49238381019559196, 0.34764770197028877, -0.4315446472337807, -0.6526683068671489, -0.7038095472233575, 0.07361036337310956, 0.7718528818863302, -0.6048237999485072, 0.5948578873602622, 0.45935238755906416, -0.31649037881432074, 0.4764831748771778, 0.6790003278432549, -0.8277669302306354], [-0.5663141169111604, -0.35513227245087603, -0.13441830041756905, 0.25863399065675674, 0.01353893567985995, -0.3223875245500127, 0.09843441456883309, 0.33497089389740065, -0.06898676820786653, -0.05918145635880803, 0.4834364682342605, -0.1628538273742466, 0.14559950611159236, 0.5592933810710337, -0.15036086607489926, -0.5904822117120686], [-0.22431663378747474, 0.09575348292347353, 0.45252106037186857, -0.06723817575863521, 0.13669102348857612, -0.4168327217854431, 0.09993327647029687, 0.1294492103641693, -0.2819368990381156, 0.15917997344250526, 0.36672295902178187, 0.12274329543523944, -0.3993293362995242, 0.4860684983787577, 0.30315303907110525, -0.23474953702731824], [0.19277060942915641, -0.02192589113061371, -0.2951191763938104, -0.3246607206428988, 0.3793301768845097, 0.4187112243550074, -0.2303551248880688, 0.24530659625352735, -0.25022800829616626, 0.5363328353982584, -0.27318711795122097, -0.3397908600729303, 0.4314991194373109, 0.14801577024788065, -0.5134419971256896, 0.5610035646899935], [0.06456595903524395, -0.017404358809036333, -0.07482803526081248, 0.18609765407919332, -0.20403227601101476, 0.31672323085056076, 0.2843737863128504, -0.3716331055567403, 0.303957535692778, -0.20216694762109122, -0.07706208412396823, 0.0714031341762583, -0.08996873868404369, -0.40792339918055526, 0.2852297377838454, -0.26086210563047485], [-0.031045269230922094, 0.3429532165234895, -0.3613908562563436, 0.19550934645987733, 0.24489600837047726, -0.06754605661941378, -0.32088879354288247, 0.2695713996604806, -0.6268285595921828, 0.3996052286936686, -0.3496759733189951, 0.0166654927587371, 0.35144895549828403, -0.05435815015481829, -0.23706081117352365, 0.498914991102896], [-0.6130296428363746, -0.330929059953133, 0.5139732983304939, 0.039356761708374065, 0.003055690954939377, -0.15283930687094796, -0.0991456627549377, 0.11646239358071513, 0.6236372978936718, -0.41518012644701635, 0.673609374219873, 0.11774278516594235, -0.4531146729983266, -0.01393774206606775, 0.09807344337793523, -0.6541155138430135], [0.3521833126177466, 0.41024827882804626, -0.43203472756392686, -0.29097813264730166, 0.14564056642302273, 0.4087980154075251, 0.6193095803334626, -0.01458456720386678, -0.3872528565895033, -0.030468717540901972, -0.5409298987120403, -0.35552464283669793, 0.009489026896751906, -0.546675449890646, -0.13452075435745883, 0.17337218632812557], [0.6196956495484562, 0.14766516331507418, -0.06465641577860651, -0.4493183906830821, 0.4030863231630798, 0.11067625370017992, 0.44179949906057964, -0.038221383160089724, -0.306311178347236, 0.16796762749216107, -0.6065896542344624, -0.5895709813710095, 0.5842753851745204, -0.24184289661362668, 0.033492964509877474, 0.1855493243724025], [-0.1117933682366516, 0.23270020542440387, -0.584752228091623, -0.39823370728491475, 0.15333869602588593, -0.016265207508588158, 0.569062090083933, -0.41746986291312527, -0.010430948692307858, 0.3425174596444706, -0.06423697048371256, -0.40578275465837876, 0.24029887208915635, -0.2038715641723792, -0.2523002547909056, 0.6027830911688054], [0.4723584088143535, -0.14346088965625822, 0.0505504077011427, 0.06255230818625915, 0.22933008345016873, 0.41810369141901543, -0.2272241685199568, -0.2775041377044471, 0.07503805204902901, -0.2502929786444212, -0.3568621599822455, -0.4144467875464476, -0.3868709851930498, -0.08922752439308673, 0.028512500841898672, -0.12033251408106999], [-0.580977442682681, -0.018379736276164103, 0.33750696654396845, 0.022431585254927285, -0.013979035326626862, 0.1205568575853111, 0.026619253313442642, 0.15658382419445802, 0.3584967246323725, 0.02850936202206884, 0.24132237630427994, 0.17479911776553986, -0.18126268366371995, 0.47046089146518877, 0.46174789017553935, -0.7569519674638087], [-0.428025971407573, -0.22914915980814757, 0.41996305691149954, 0.17930860736207394, -0.23297327340275029, -0.4000127493952727, 0.07669283682396644, 0.27555118693931413, 0.6191809602323078, -0.15550208468751733, 0.2674552262665561, -0.18375236303947973, -0.5386028714531822, 0.13944893704743805, 0.058646070270541174, -0.411669743312415], [-0.14091793435590083, 0.48029359214139483, 0.023518516046069117, -0.085578442276366, 0.45642882986108585, 0.542949199567741, 0.2577188414425277, -0.3266662477453375, -0.7104698967242108, 0.4403725183256052, -0.4048087149667924, -0.10937416283516938, 0.5599819996409335, -0.5185343112770165, -0.20096700050448932, 0.383622432543209]], "biases": [0.03993334410843053, -0.010492807153807187, -0.19984180091715206, 0.04784534409193854, -0.014871265726098886, -0.06769643746685997, -0.00020846144103486917, -0.029060398106359006, 0.10108732880792287, 0.14421511830998332, -0.026430874832388068, 0.03761917483830615, -0.008207696897378769, -0.15376109958354964, 0.06152837945803976, -0.058790658206619835]}, {"weights": [[0.6052284072671106, -0.4415020882240861, -1.3999731894530396, -0.5559416756692767, -0.2989564191154451, 0.929013089055606, -0.3449550643555758, 0.6135307454784864, -1.053786358225935, 1.1497145075827724, 1.1340536238429482, 0.5655329368991596, 0.11214400420865166, -0.7316655542206876, -0.879297054704936, 1.2436269356629264], [-0.7254317412032057, -0.013636224872301487, 1.7880452594036096, 0.545513321244206, 0.54459252049167, -0.6161115690591735, -0.2123193445907856, -0.549499098262615, 1.1053563805623048, -0.4908397456938629, -0.4717675427503821, -0.8499878173234999, -0.10747260811636193, 1.0113223829421898, 0.6037738222351646, -0.47178496311829093]], "biases": [-0.014714464266055854, 0.01471446426605568]}], "means": [14.036749450549458, 19.16942857142857, 91.30101098901098, 646.3925274725273, 0.09631446153846142, 0.10279531868131862, 0.08503131582417577, 0.04730564615384611, 0.1812586813186815, 0.0627919120879121, 0.401786593406593, 1.2163573626373632, 2.8367553846153863, 40.06503736263736, 0.0070851670329670395, 0.025134830769230766, 0.03110941230769228, 0.01168316043956044, 0.02060302857142859, 0.003765091208791205, 16.141734065934056, 25.496571428571446, 106.26301098901102, 868.4828571428568, 0.1320549010989011, 0.24874670329670345, 0.26143682637362625, 0.11198138241758247, 0.28951626373626377, 0.08382382417582417], "stds": [3.482944614829845, 4.32327039707403, 23.962108253343114, 348.7200196719216, 0.014074597415285696, 0.05227466020151787, 0.07760719057210037, 0.03739580346345016, 0.026902160671784917, 0.007270331890255717, 0.2819976924082182, 0.5468817212918659, 2.0752442354471734, 47.71185317257382, 0.003128152101114071, 0.018043669396800393, 0.031509885176132894, 0.006215489130237885, 0.008584389688909273, 0.002552797863127563, 4.794921370706414, 6.07870595168871, 33.25865780613842, 567.9594455153276, 0.022495429219275834, 0.15497206682336456, 0.20339719007536033, 0.06448048306596955, 0.06218735569244246, 0.018686174047688683]}