{"network": [{"weights": [[-0.034271568377488765, -0.5768900209752387, -0.30372852473150264, -0.39019416664968787, -0.046501634349272424, 0.2958442993169038, 0.023474794059851246, -0.6576314718127364, -0.10476909393141355, -0.173445710274238, -0.5575959665566227, 0.244729656669518, -0.502940513939562, -0.5151144383945226, -0.12413501925920685, 0.4455640958455342, -0.1470740060465257, 0.12545084066093432, 0.21252001196194018, -0.006435732524911242, -0.13651917409034564, -0.4496562079885243, -0.40771558843246647, -0.6395877211476528, -0.08371684762847238, -0.07776831581063406, -0.6971647854539083, -0.6541458200706102, -0.3549839318366904, 0.16441465747767137], [0.019722130586889063, 0.07151517283923935, -0.17734247823710342, 0.13212553678474817, -0.21151742404846532, 0.13340073810623393, -0.011769489970011187, -0.2351711602057475, 0.2608348940886964, 0.21351109668608254, -0.23288697421223423, -0.09754782426692013, -0.4477194080170881, -0.4789660366197046, -0.15932182632028674, 0.19236465176287804, -0.27835396992376055, -0.12609159015432597, 0.23004559736709948, 0.24237872761396312, -0.49324165979036555, -0.5603389214884249, -0.5002333118547074, -0.03557879472439218, -0.09304506517091418, 0.13571820609024451, -0.585030234888237, -0.12848818673616372, -0.6036681133199803, -0.02468484956673301], [0.47407365835928295, 0.18444633182924966, 0.12679483570161826, 0.2381533874034228, 0.35800676037912754, 0.23250900297695193, -0.10508623311021864, -0.2194342598541875, -0.1175808935124553, -0.1997224361683319, -0.05750956621101268, 0.3388730626532182, 0.4100626946551154, -0.017746926802383108, 0.05232805525463188, -0.1993790667273715, 0.26311990912311206, -0.06255189592741706, -0.24596506050070638, -0.32088827536475345, 0.2109353580304763, -0.0023841555583463494, 0.20459802678759478, 0.4713580560797819, 0.04111565274371022, -0.1742478969785964, 0.5307698033622887, 0.15745524701926344, -0.17499671195604513, -0.3163090228863802], [-0.0427609401898158, 0.4040414965999221, 0.47800933934187906, 0.2341234934618313, -0.24131018329074602, -0.24367433181180986, 0.7246404829332111, 0.37202218321086883, 0.22243905367314543, 0.02642517974189324, 0.02118762113860072, -0.07306772905010042, 0.37275628376918296, 0.38515708804920173, 0.097757773973166, -0.205423787878022, -0.24324310435783583, -0.008219397962908593, -0.1308716114768399, 0.08865166406771975, 0.757227889434794, 0.37077699570031936, 0.37058335297245176, 0.19814068465920867, 0.6241728528491857, 0.19889944811570262, 0.20432937299157436, 0.4220851030173456, 0.3855771588402459, -0.4073639647702047], [0.28196335473835826, 0.30019802066823503, 0.27996516508658875, 0.14018939051828241, -0.1557420256460482, -0.2125663302722145, -0.00727597141246614, 0.6640547642685267, 0.3516816910841412, 0.23508665418460276, 0.3006827399476603, -0.4313513297592569, 0.5372555304509301, 0.6894308186659368, -0.31710779947196316, -0.3039684853866717, -0.24614440163622975, 0.13634519755894509, 0.12841197006155608, -0.5560064772599692, 0.31202494638989575, 0.7048270672894581, 0.052158028561678, 0.6358916284146603, 0.40038153103396606, -0.14216418810355155, 0.5680470014101753, 0.5182758380374177, 0.26566198532068575, -0.03832948327934026], [0.4820023404764197, 0.20156078428830906, 0.03866142973707651, 0.12010983140529043, -0.1452060183934001, -0.17463022994392147, 0.10514887775476445, 0.2986037506351963, -0.1776053917632141, -0.1742474148921524, -0.05673900257528747, 0.054134148052285246, -0.012098830283397442, 0.5274042988898646, 0.2927137620127894, -0.43001975247332574, -0.11542409899299236, 0.2141150672403251, -0.2974824291125767, -0.34344964714174075, 0.5445723278148384, 0.2509531124123877, 0.14586345880425916, 0.42415429606546873, 0.4195741315173893, -0.1873192555961925, -0.060927449189291515, 0.1519827696184474, 0.09100815284661351, 0.04874125276466061], [0.05474791421997786, -0.05047643725593153, 0.26217758552218107, -0.45352846432898564, -0.17663531678969605, -0.14259497401030474, 0.1293853122116494, -0.39911335521344155, -0.21524373453026432, 0.00822395219221342, -0.3210781990332313, -0.20898884163652712, -0.3787325480759502, 0.14200383407684466, -0.14280732954041495, 0.33647370159093387, 0.035730492443716, -0.45339640636652145, 0.41150730910234345, 0.3266339617185563, 0.16438940554944148, 0.06846111315902614, 0.10116317022240803, -0.4654921384024983, -0.11967403756734067, -0.2633957799519169, -0.23595986498866112, -0.5215696284577565, -0.21090877355157783, 0.37902055916866284], [-0.20923124285534703, 0.20014458347825734, -0.05863792098455164, -0.08683800257709144, 0.3206200628871042, 0.3681662419626345, -0.024255009205874613, 0.11318892571985803, -0.2961033227826219, -0.17806550823142966, 0.3301582362286314, 0.08715668897007338, 0.01045660740435618, 0.16061653048946908, -0.39069600338255916, 0.05496301284526394, -0.03990764914557606, 0.2503053685941807, -0.2896011649733118, 0.356000621218793, -0.3828041820696755, -0.31561152405095244, 0.034077581660895404, 0.09128098520868315, -0.2717699524309176, -0.33888633534382534, 0.23017388881016168, -0.2649299378749804, -0.0006054393350743302, 0.060487496549785504]], "biases": [0.23962403834392962, 0.2015866372032072, -0.08612419755604266, -0.3269957381909654, -0.32950536078585585, -0.13446443955395568, 0.028342442823549658, 0.016875531158443324]}, {"weights": [[-0.26356722135946714, -0.015337646860187551, 0.11499328892268813, 0.6829817783006805, -0.1855953436535992, 0.36364895235071204, -0.39377524462004565, -0.10833661822394344], [0.46345456035567323, -0.07317495934851706, -0.3867040337370079, 0.03779625251076206, -0.8335283698157945, -0.22918868491639993, 0.7026807970974087, 0.5539016522192773], [-1.3429647710300636, -0.8891940320761643, -0.0073133713144017285, 1.1192414062432896, 1.1831635235742768, 0.8019548703352358, -0.46900069946362155, -0.41951038337946356], [0.5310948634919175, 0.3237674820784622, 0.05089918503169357, 0.460440167405589, 0.03299972353292558, -0.6938698228493814, 0.4291872274919624, -0.2774089339008735], [1.0745469290527827, 1.1208697753574886, -0.6504001059591008, -0.9874554891256175, -1.120817877155445, -0.19787977873983045, 0.09907983520659702, 0.20198452149330648], [0.7906411037350314, -0.041811720524448995, -0.09228542775738276, -0.7405338315466595, -0.5389131322218349, 0.22366813497350932, 0.609980766136284, -0.5600317185441267], [0.7875364249282664, 0.24375189849578063, -0.8920040481949351, -0.2940645072188905, -0.5681469262375434, -0.5709189908445161, 0.6123202259600535, 0.01620928041300934], [-1.0911203887346417, -1.2207060110663421, -0.20140324547027624, 1.111158983238518, 1.2830302026939693, 0.4220629915412711, 0.016578237291722975, 0.07448535588422907]], "biases": [0.007361552889050209, -0.052392565108449335, -0.11677181480480064, -0.03232989987018584, 0.25397084749542786, 0.001460851864730449, 0.1368451407136562, -0.21799933121125298]}, {"weights": [[-0.8942694019803002, -0.0608485916640705, -1.8084770685445901, 0.8283633083864065, 1.7696909057950432, 1.1611852482535436, 1.2040603818541553, -1.7210275408325926], [-0.03892822067325832, -1.131659803395037, 1.945386397454744, 0.3848350767196689, -1.4559797276897408, -0.4154592033073645, -1.1212126594475347, 1.9378488512115495]], "biases": [-0.03934839806787536, 0.03934839806787514]}], "means": [14.036749450549458, 19.16942857142857, 91.30101098901098, 646.3925274725273, 0.09631446153846142, 0.10279531868131862, 0.08503131582417577, 0.04730564615384611, 0.1812586813186815, 0.0627919120879121, 0.401786593406593, 1.2163573626373632, 2.8367553846153863, 40.06503736263736, 0.0070851670329670395, 0.025134830769230766, 0.03110941230769228, 0.01168316043956044, 0.02060302857142859, 0.003765091208791205, 16.141734065934056, 25.496571428571446, 106.26301098901102, 868.4828571428568, 0.1320549010989011, 0.24874670329670345, 0.26143682637362625, 0.11198138241758247, 0.28951626373626377, 0.08382382417582417], "stds": [3.482944614829845, 4.32327039707403, 23.962108253343114, 348.7200196719216, 0.014074597415285696, 0.05227466020151787, 0.07760719057210037, 0.03739580346345016, 0.026902160671784917, 0.007270331890255717, 0.2819976924082182, 0.5468817212918659, 2.0752442354471734, 47.71185317257382, 0.003128152101114071, 0.018043669396800393, 0.031509885176132894, 0.006215489130237885, 0.008584389688909273, 0.002552797863127563, 4.794921370706414, 6.07870595168871, 33.25865780613842, 567.9594455153276, 0.022495429219275834, 0.15497206682336456, 0.20339719007536033, 0.06448048306596955, 0.06218735569244246, 0.018686174047688683]}