{"network": [{"weights": [[0.03710307494034134, -0.49840213937307054, -0.21422829462261078, -0.2726963635139961, 0.04034989559629405, 0.22904492475384325, 0.12694976392356888, -0.4965286476623354, -0.05818821415763467, -0.29627935875713474, -0.477134102670813, 0.14802496227834036, -0.4834661198486146, -0.4011339408302835, 0.025579362895485024, 0.29164218000102093, -0.16743922186156915, 0.035147495455016976, 0.25754216609090297, -0.1392743744397997, 0.019482535249179266, -0.20356349695506418, -0.25797275328468006, -0.4364801917354859, 0.11774475530133481, -0.11263240897080859, -0.5235027827714313, -0.5163708426755321, -0.077702108986888, 0.061356526256364674], [0.0948435143161415, 0.05040653316313419, -0.08898780386245947, 0.2063616300011383, -0.1675686478859747, 0.1086940085877749, 0.07370961391275356, -0.13811520330493882, 0.23410708948777853, 0.1127985543104885, -0.1986966943138785, -0.20278830584813418, -0.4304678921032121, -0.3866922627064323, -0.13780186312135542, 0.11869776537852335, -0.2502793227069154, -0.2006729306513717, 0.1836806860109585, 0.17430457963231114, -0.32427496694852126, -0.425698882826298, -0.34982609745682686, 0.09214256073526889, 0.009703297108112014, 0.11746979757406376, -0.442405911504437, -0.05957890767080107, -0.45103692638130705, -0.05550924500377644], [0.4996165141242113, 0.2654514161636525, 0.17090788553927302, 0.30658809602196835, 0.3335412090781088, 0.03715977553971883, -0.024364618537287996, -0.07359630397486555, -0.25582430318241883, -0.26405985443188007, 0.17450918085179978, 0.15921640692104305, 0.5040043232417741, 0.15029029723661036, 0.1645778265945751, -0.48494313659831, 0.15134061358903597, -0.09015312586100764, -0.40033254941504814, -0.5104689349473689, 0.3629600898561132, 0.1955281709035484, 0.31092670606874273, 0.6033527361812823, 0.1328266067433456, -0.29742648560113766, 0.549680621902994, 0.2423732715112801, -0.12308013020474937, -0.372924524052469], [-0.1787979232525731, 0.20973322144548653, 0.30415801279232774, 0.06076769596416151, -0.28369681445344963, -0.16262200992173456, 0.46725301563214694, 0.18079308541127945, 0.31895146178903566, 0.1814272349642113, -0.12813328200012694, 0.026782806485941897, 0.2725293771315198, 0.20191089260790243, -0.24845692176788248, -0.1378981834888962, -0.3736368587444502, -0.11286247956678487, -0.08585862322231859, 0.11112867925061004, 0.46882623205293517, 0.05845754191533616, 0.1576139993348325, -0.034710328286405606, 0.41126488458440824, 0.24365097136329825, -0.010139102390034363, 0.255902077461994, 0.2564292060215379, -0.2709196547308663], [0.004914472334368512, -0.15792537018684105, 0.032331709401126875, -0.16885731285673056, -0.36678724636963345, -0.027182805053684044, -0.5037056638519973, 0.08572153296801412, 0.26529773320244104, 0.3693696780832127, -0.5357441245671771, -0.1980232952591374, -0.008327313075524872, 0.04474891033216096, -0.16782542675483514, 0.3099333001068655, -0.25483697330020827, 0.14290339150295406, 0.26306832152128223, 0.018983598561971987, -0.2972047091643963, -0.2276234096318075, -0.3952598446496103, 0.0003576131730821006, -0.09783887947561604, -0.1424820396399745, -0.1520950914348178, -0.04708311460552087, -0.42685297934912225, -0.049394911126185805], [0.14881529078905642, -0.2111201698942076, -0.22844366797060023, -0.20829390803040498, -0.28227095579863776, 0.025178276937371426, -0.3018384907519632, -0.17673769729985347, -0.010380038127118437, 0.027675267794447914, -0.7763321812529157, 0.2718065302993036, -0.5102519094254838, -0.0355297613741777, 0.17614337314840117, 0.094806655254531, -0.2277009854652018, -0.0031742138492032263, 0.009580010478991352, 0.06085552526496472, -0.01724841026144186, -0.3498356488427916, -0.2767835748739889, -0.11488611096264263, 0.1083592296651465, -0.05298027379948939, -0.5211997125502841, -0.27892640174564615, -0.1565826025467769, 0.14251709564870024], [0.07755104947767141, -0.06223013157969917, 0.2722387996141336, -0.38611355323883656, -0.10982761408227465, -0.022785932297677627, 0.13763656712931363, -0.366267076974388, -0.22564457096673834, 0.02506002954266427, -0.36888665637605944, -0.03911146359406543, -0.38266094069510326, 0.09611067325370228, 0.11069598498834726, 0.583667999553077, 0.15816105544988338, -0.3136242404010176, 0.4254537673207406, 0.5147713757912433, 0.13131963436607247, -0.008426161072773372, 0.09343896332232661, -0.43829384326799953, -0.08694574519159819, -0.18448630385545348, -0.2539755534554189, -0.5189169792393825, -0.3334872066480389, 0.3563812005598563], [-0.14659286364773189, 0.22779289513271253, -0.011922937246311561, -0.024545288804742736, 0.39069927428003465, 0.3463096179973251, 0.11328424932893404, 0.24637299235153243, -0.24247347577283562, -0.1361724002602822, 0.4435838946760078, 0.022408567218694136, 0.09188014592074706, 0.253637877477135, -0.27860943797724186, -0.00046526488236673237, 0.013745537898584322, 0.29134875638590746, -0.23088090300836014, 0.2894208198882508, -0.23524262897220133, -0.1518091960310043, 0.11904338592976277, 0.1961711180542145, -0.11578572954954525, -0.27490813355453486, 0.3584794059557954, -0.1016188357766649, 0.16375937217776063, 0.0970937638799918], [0.1498157486918746, 0.22936508018292912, 0.2144016307185689, 0.550899526154272, -0.14640739551341456, 0.06558236826941678, 0.11892034919519454, 0.28897820733876683, 0.17498654753047715, -0.2379555549801931, 0.18985342951827872, -0.2948004501806089, -0.1217734761898797, 0.26661595380099173, 0.44454486659395676, -0.04875663656528651, -0.43097853783154494, -0.28429691037500526, -0.14962253301711326, 0.008073831673711371, 0.6904583874480078, 0.6962934811432735, 0.2514608383772567, 0.16457967273407856, 0.5049941124851359, 0.13393974238204417, 0.4022750359069554, 0.7232925426843823, 0.616371140100032, -0.34025641299677356], [0.11550136469311033, -0.34648593208361644, 0.02095653649055985, 0.19505843052551217, -0.3184508520093158, -0.14028674725862636, -0.4010771441035484, -0.1529151514815497, -0.05176788232140635, 0.18405309963976652, -0.2581125436574779, -0.08095021936320972, -0.17874994215151133, -0.4460659270080982, 0.006096642938253937, 0.6054652083841411, 0.3610902271666116, -0.32483019619314335, 0.13254944757884565, 0.1051191944171976, -0.590339490151972, -0.11534312248636278, -0.07274334049304067, -0.39420821924595123, 0.09164225865869914, 0.08699377752438117, -0.23198532058319585, -0.5267051391083287, -0.42417785172617556, 0.3138700362650288], [0.41569305766368925, 0.33911590419850696, 0.35154086740650115, 0.1988166644294881, -0.15238134989887608, -0.44738940792177145, 0.031139946818434936, 0.5576562783546278, 0.2362112968676238, 0.07292969063779742, 0.728864871585699, -0.42504688996189854, 0.09992596828406215, 0.02922093321547549, 0.3693687308174237, -0.19600152553640734, -0.3510864812097047, 0.03724392893965533, -0.35356529546927384, -0.07817592710448798, 0.5575161442475862, 0.8851414317810967, 0.44514477058496, 0.5602884906523377, -0.12315984631422988, 0.08726927629895194, 0.05292594561700596, 0.5646548952960833, 0.5484805277896267, 0.16800386810668225], [0.3572667513346151, 0.06904929521152202, 0.32849576330686775, -0.13277461695023918, 0.3123177669625043, 0.18319639240874744, -0.015886864230862732, 0.452080812665692, -0.013101480744182482, -0.21976099142767502, 0.5403712681717704, -0.3021033029394499, -0.13798816400768563, 0.02504356689887995, 0.0018114654099801086, 0.049964011317671767, 0.3163772382832188, -0.10500477260855659, 0.1508726331267409, -0.2592027844398345, 0.6001523865859898, 0.3979284669208844, 0.5140315826435119, -0.026948680693758963, 0.47089579956960437, -0.25552719439177984, 0.5295743084195484, 0.034936926593662966, 0.0358250789670138, -0.07167016904353046], [-0.03776095812351001, -0.36970540318772327, -0.10938835576534835, -0.20111492333236236, -0.17323752497491954, 0.1508517102539274, -0.3444542253003922, -0.12295277491559241, -0.3544900636892381, 0.4142300445232805, -0.4623799915705286, 0.34236598724684825, -0.16096102387158498, -0.22732691045615713, -0.1274457129660605, 0.04604759110539603, 0.33461945437921925, -0.1138673871528014, -0.025554568835423293, 0.5338695363442242, -0.18755320160264924, -0.5476608692112576, -0.413564475666777, -0.3959965615782247, -0.20262916497303457, -0.13210047468783775, -0.4507513183173174, -0.29822450529463873, -0.026418676820535718, 0.13590469170233171], [0.37632081791084876, 0.2325842099325943, -0.06345382958570935, 0.14464438749395375, -0.11237034820486416, -0.14647455618059607, 0.25552492957738426, 0.3797263360238079, 0.14869235700389483, 0.07213651173674968, 0.4654298802001261, -0.34396063674799693, 0.33501654084549987, 0.6332943812435887, 0.3302810017934433, -0.452080500968524, -0.25389658919871194, 0.17352046998483273, -0.03249954176293043, -0.25474818381807873, 0.48544714446263615, 0.5161737118862495, 0.32129009028571476, 0.06034160831680851, 0.051588728815975676, -0.2503667528496665, 0.19409288294968713, 0.3119020801018845, 0.5454063016147235, -0.1631900500732209], [0.09186254629581458, 0.15707020010193123, -0.07725903427922134, 0.30514481156369383, 0.013395795955257039, -0.23123146195811792, 0.25476412743910337, -0.11854829158451877, 0.1967107464725498, 0.0848733555684175, -0.017316736392461268, -0.2536392043884595, -0.06761495204308403, 0.5528422989927836, 0.0030849472712111445, -0.5501451204201557, -0.3855650328004363, 0.17888229426134628, -0.015610646552327816, -0.013693896502775313, 0.3810922080992891, 0.5819645251578194, 0.2798298575542203, 0.5792053338774508, 0.36270548780394896, 0.08601933143963805, 0.28012386507065173, 0.20356566978484167, 0.4881404480802454, -0.013747464653858576], [0.028402016878483368, -0.1698211064611155, -0.25414199495773315, -0.4437481280694938, -0.34927696945366316, 0.23910565708851841, -0.07099632256487134, -0.4309859288256252, 0.23079821131970557, 0.004467905405889301, -0.7998159787926927, 0.21002849601777396, -0.4505751030174713, -0.5135773921965524, -0.0543503851879225, 0.30865064394748815, 0.1485646223514859, 0.24179804347885198, 0.3954711162268585, 0.17885416837741103, -0.5481532147358685, -0.5892913884545671, -0.4469532595498511, -0.6699832861990284, -0.4500236153046453, 0.2780227750536674, -0.25691496376210765, -0.28027166618555743, -0.14068716962477873, 0.18239464829089624]], "biases": [0.005031239566545039, -0.007706265771703172, -0.22059343075152557, -0.13739386911942525, 0.034071164606396594, 0.026595473135736312, 0.00775213980380606, -0.05077092076150439, -0.3271254987577935, 0.01894394714149101, -0.2017451724736506, -0.17178183203570058, 0.11139250279047778, -0.17458033082668373, -0.23340446489803732, 0.2501990687756556]}, {"weights": [[0.10653520764593447, -0.3111322714383824, -0.3579734595831896, 0.11893889054488277, 0.37083923671256197, 0.5167134872521331, 0.0978538181201222, 0.11190420141081926, -0.1941552514944557, 0.3123399700300974, -0.5373933009706787, -0.4048567233776901, 0.12671107390919106, -0.6235692996293213, -0.3541243647439457, 0.4027958659284586], [-0.18075103478868282, -0.3304146805031613, 0.036900051594487726, -0.3018434587603991, 0.08105636258152632, -0.4658684190835659, -0.1593106695400822, 0.07834226682624776, -0.3461553655822951, 0.0248172977755833, -0.21646180066270757, 0.013772969641883296, -0.46873633797060743, -0.06019352113883862, -0.19615851814074126, -0.2423521518371084], [-0.283705948779856, -0.4033205839393779, 0.5165042445062747, 0.3245517325576453, -0.4327848703739622, -0.6848944011267847, -0.8391695846714254, 0.03212934549361156, 0.7476104743416581, -0.6804179260367632, 0.5643002112313527, 0.431138852046207, -0.35426193660196265, 0.5348636513087829, 0.6780289899782811, -0.8454314203934469], [-0.5625606919720776, -0.3745607461287602, -0.15964790150012267, 0.22022585293123417, 0.008574601413912118, -0.3285464719883259, 0.04338140113669857, 0.3038537250201101, -0.12307709809485755, -0.07664330888252988, 0.4227459791263134, -0.20735354493203428, 0.1433286202188296, 0.5479693925220984, -0.18925573193550016, -0.5827377316421498], [-0.2704907705613025, 0.04214111420318102, 0.45070103120368243, -0.08286512814835596, 0.09141337177130753, -0.4617353668050312, 0.023251962931987634, 0.1105105991808144, -0.2852248438406798, 0.09896416524952008, 0.36113107679754813, 0.10401487142023652, -0.4455274411044413, 0.49237392787621703, 0.3015083458735745, -0.29187707136687224], [0.17644044907518283, -0.035920332956439746, -0.35893090242780934, -0.3383006007488539, 0.32292648569993304, 0.3923044394256823, -0.19248651856380844, 0.21215133439932066, -0.2643867427877074, 0.5335235393769673, -0.3011801778368409, -0.36041088144460237, 0.40406147829094835, 0.0693155795883555, -0.5450229425468539, 0.5273380925780667], [0.06512137314693105, -0.03669302467217358, -0.15511210473385578, 0.13444924106733405, -0.2373180050106871, 0.2993970906247581, 0.2741607556172773, -0.42802632636344573, 0.22883658439601395, -0.20081468327817606, -0.16728660475749546, 0.0023915221951269017, -0.09459862247965645, -0.4828523186342372, 0.2130655459081885, -0.25963849971305547], [-0.060047929979516745, 0.31772781952732443, -0.42620383642105375, 0.17050238298208048, 0.1836863799363161, -0.10411777844947194, -0.30550325555954305, 0.22526825472945503, -0.6519386461357161, 0.383765030000988, -0.3860894753413025, -0.011594574507978489, 0.3131196967039439, -0.1281088929709713, -0.2752036338903043, 0.4536752769204105], [-0.621829501004445, -0.3637612293919649, 0.5312984570965836, 0.015324431554479991, 0.001569428533226232, -0.1650492052249187, -0.1934260758088695, 0.1011746993345633, 0.5962942844176226, -0.450314096316585, 0.6427978025181993, 0.09597531808126904, -0.46352588137594053, 0.022911599799058102, 0.08665937527572125, -0.6564757177222024], [0.33836724651730304, 0.40260285244875793, -0.49010149110306567, -0.3012165337397095, 0.0945459455601676, 0.386158730383829, 0.6616658729318619, -0.03815473506718241, -0.40142342398246034, -0.025305679187731106, -0.5688436560643925, -0.3621313786020005, -0.012650825982675893, -0.6162866110273675, -0.16417956372909, 0.14642542908241768], [0.6161068900504334, 0.1473583780311117, -0.12840104181303663, -0.4629410365087689, 0.3652534080365918, 0.09589339772841722, 0.484465518995744, -0.06398582966837527, -0.3300245527561751, 0.17634092904228515, -0.6401162469771291, -0.6056074810679372, 0.5678887011363227, -0.3151912411993471, 0.00047815797496764443, 0.17632477050375667], [-0.1329654562186351, 0.21588049079048865, -0.647293489062942, -0.4141933814649372, 0.09464889348804441, -0.0478434935843002, 0.6022015089649659, -0.44988441046627675, -0.03186111222575242, 0.34271213540338497, -0.09984258727045091, -0.4246711817191623, 0.21155800072184827, -0.2745944705368805, -0.28723653317715636, 0.5676477227403451], [0.43902292751278327, -0.17438300251294397, 0.01943943699226227, 0.03956576478012206, 0.19146805497901542, 0.3829167637194799, -0.2524964975538737, -0.30729872643128014, 0.05314777835985865, -0.28489662411718486, -0.3787973809347284, -0.4389970294007773, -0.424082218806923, -0.12006484397402398, 0.006258470865079669, -0.15883180354140394], [-0.6066115825146922, -0.055819433401608526, 0.36058726641318384, -0.00043596722972470247, -0.016027660554724713, 0.1000580308721081, -0.07156414078048877, 0.14103642108504927, 0.34073228171036374, -0.023944332221796767, 0.23116118933254448, 0.15703196280875198, -0.21041902054384887, 0.5167183209928283, 0.4625364247415064, -0.7778887074857015], [-0.42447314016891996, -0.25272516031710823, 0.40292450162543525, 0.15172913501145785, -0.24421887306220472, -0.40973753263848994, 0.01692487696954287, 0.2520842544699986, 0.5776006356330693, -0.17232775180107068, 0.21414263960335136, -0.22020733696277667, -0.5383733677669503, 0.13666684052173336, 0.027941259520351078, -0.40659283281417763], [-0.14656093990433589, 0.47754612468993135, -0.03879810030492711, -0.09497631608954309, 0.41335628156017806, 0.526991538705323, 0.3039383626441263, -0.34984331828859216, -0.7264979068874238, 0.4504751589916289, -0.4314598055375145, -0.12251031082793436, 0.5428142206238277, -0.5940073768602245, -0.23125748749735678, 0.36953241137809456]], "biases": [-0.00039707491043125396, -0.03416843473655802, -0.2778527460595279, -0.005341314580875136, -0.08082681815221415, -0.11014003966826934, -0.07680470635337068, -0.09381480197052072, 0.055562672031862846, 0.11352124669664139, -0.05558673315830882, -0.006587856912998432, -0.06819640490749052, -0.2054115880258812, 0.014791571786285415, -0.08477350999581329]}, {"weights": [[0.5542591647024169, -0.43174181873879686, -1.3431535309901805, -0.48060874028031825, -0.36360331444491945, 0.7984438933891858, -0.2532377834546279, 0.5153091641346099, -0.9642159422733517, 1.0959041494818091, 1.0636678504907715, 0.5203914340576753, 0.059332030249377374, -0.7079584427636354, -0.7908803954241331, 1.1694758895295485], [-0.674462498638509, -0.023396494357589778, 1.7312256009407492, 0.47018038585524846, 0.6092394158211423, -0.4855423733927564, -0.3040366254917343, -0.4512775169187402, 1.0157859646097256, -0.437029387592901, -0.40138176939822046, -0.804846314482018, -0.05466063415708879, 0.9876152714851381, 0.5153571629543638, -0.397633916984911]], "biases": [-0.0786472192354188, 0.07864721923541841]}], "means": [14.036749450549458, 19.16942857142857, 91.30101098901098, 646.3925274725273, 0.09631446153846142, 0.10279531868131862, 0.08503131582417577, 0.04730564615384611, 0.1812586813186815, 0.0627919120879121, 0.401786593406593, 1.2163573626373632, 2.8367553846153863, 40.06503736263736, 0.0070851670329670395, 0.025134830769230766, 0.03110941230769228, 0.01168316043956044, 0.02060302857142859, 0.003765091208791205, 16.141734065934056, 25.496571428571446, 106.26301098901102, 868.4828571428568, 0.1320549010989011, 0.24874670329670345, 0.26143682637362625, 0.11198138241758247, 0.28951626373626377, 0.08382382417582417], "stds": [3.482944614829845, 4.32327039707403, 23.962108253343114, 348.7200196719216, 0.014074597415285696, 0.05227466020151787, 0.07760719057210037, 0.03739580346345016, 0.026902160671784917, 0.007270331890255717, 0.2819976924082182, 0.5468817212918659, 2.0752442354471734, 47.71185317257382, 0.003128152101114071, 0.018043669396800393, 0.031509885176132894, 0.006215489130237885, 0.008584389688909273, 0.002552797863127563, 4.794921370706414, 6.07870595168871, 33.25865780613842, 567.9594455153276, 0.022495429219275834, 0.15497206682336456, 0.20339719007536033, 0.06448048306596955, 0.06218735569244246, 0.018686174047688683]}