{"network": [{"weights": [[0.057381740422596327, -0.44791527534360825, -0.19671562928695102, -0.25234769184516975, 0.07027300322849575, 0.21335973936433028, 0.15495406844523407, -0.46115413879233114, -0.0830301027803063, -0.28702171349296174, -0.4016505852650212, 0.08796197855736476, -0.4344331995836614, -0.34850080045670945, 0.11710263703118237, 0.2769003036630046, -0.1639126630429838, 0.06276503618212716, 0.22743477868230755, -0.15836891489074764, 0.06329294038336154, -0.11686187164094995, -0.22746730743376317, -0.39597333036316784, 0.15333454616739375, -0.09555208723201436, -0.4701533943027555, -0.4826224527139828, -0.02597849491008953, 0.07803478777219819], [0.0847760112385706, 0.06449272779811717, -0.10226914087087743, 0.19899117306738012, -0.1571738333611464, 0.07100101665756355, 0.08035718237425499, -0.11935339874927804, 0.2469162998309887, 0.12588387328144188, -0.11432403250754888, -0.22662064830443787, -0.3725059668172352, -0.34157242872195465, -0.19158699662367404, 0.026406097253309852, -0.2698746684418351, -0.1914927412781576, 0.16982956707622826, 0.0903230453142652, -0.3112915930850241, -0.38472672361043897, -0.3501897458249031, 0.10649446684895483, -0.0051424036411813565, 0.0901182654951681, -0.4133223470621847, -0.04008682673774274, -0.40307791775608154, -0.06645161080862473], [0.45254770726982824, 0.22418919274767019, 0.12961480564455083, 0.24924151730972116, 0.3344463180730101, 0.11476252606353758, -0.04709901876961515, -0.12696009920313708, -0.15990820387133484, -0.22743895222380187, 0.07551935454707144, 0.24346099675131366, 0.4399419546421827, 0.06725723111274555, 0.055444022662897954, -0.3680972149472468, 0.20819698618637486, -0.06706615003803895, -0.2912376749850606, -0.42774873010512754, 0.27199696517910854, 0.09930512454088013, 0.23973000719711862, 0.5090819608334447, 0.0997214511041642, -0.2358295476313283, 0.5398771751490109, 0.2156907060766539, -0.11034293884745283, -0.3262409159766871], [-0.17145873000575065, 0.2163672831199752, 0.31212489028658075, 0.061235519323308965, -0.292915999888542, -0.1510831933680838, 0.45572920180801585, 0.1626808776560415, 0.30382970511782353, 0.15394445179903266, -0.16282033687594852, 0.06904322020717395, 0.24931801812183588, 0.17561257086410997, -0.22587623715608232, -0.10007983795684039, -0.34604603253694377, -0.08025950696083428, -0.09296469964726896, 0.13525440892866372, 0.4533085061545856, 0.03017606426995889, 0.1483194721293746, -0.055506838706571186, 0.3899987319343252, 0.23516928500266937, -0.030637588749919804, 0.2416252995722473, 0.19768373601747094, -0.29668961973335317], [0.00789375581771638, -0.12637575164457632, 0.03220483162500864, -0.1671236570962916, -0.370229613408107, -0.06071902859336472, -0.5134459359428359, 0.09267519707817325, 0.26268620167349094, 0.37297552217288266, -0.45118676986511325, -0.20947201862412335, 0.05908239737892821, 0.08984455716966157, -0.19445839591730157, 0.2399523386333987, -0.28900124461230914, 0.15771886931216197, 0.23263166175444353, -0.042995145964707736, -0.28572645088305604, -0.19198572002315115, -0.39372366026646227, 0.009692536452467804, -0.1297946849743623, -0.16661516717054414, -0.14808089008382433, -0.04562721756388505, -0.41128776793401806, -0.061975556310084806], [0.1512126324341126, -0.16864366178609952, -0.23146796351934562, -0.20246545048397246, -0.2629596885306016, -0.03545626363338517, -0.2823963809642301, -0.1484821790737102, -0.032467743829547854, 0.022449565499901143, -0.6732205031558803, 0.19997217837408016, -0.44259500329901785, 0.025762962788368135, 0.21579313897616897, -0.010482743576819964, -0.20920254459309046, 0.050460500766471336, -0.02639094788992867, -0.022645168839308002, 0.011336556607943383, -0.2852090476098439, -0.26761686476392343, -0.08713882915404371, 0.12240830795776299, -0.09489251379585355, -0.47022039774371854, -0.24293600663469397, -0.10208924601312758, 0.12515656364973365], [0.09382769176988122, -0.002169142696324065, 0.28426235324980215, -0.36836718086728226, -0.1030544148417084, -0.06595866431255347, 0.16643508263772663, -0.30971708703415485, -0.20787901085192842, 0.02038152815292656, -0.24052123728595193, -0.09842556460490053, -0.2981562973298156, 0.1740787955508834, 0.0002366972280843694, 0.43061323852763583, 0.08079350223900912, -0.3335293507437491, 0.39827421407353714, 0.3823292184734286, 0.19656277472275682, 0.1139655581216824, 0.1383496763747507, -0.3777496028583345, -0.08478712667058352, -0.1890742063978223, -0.18612422444474186, -0.45005432410295404, -0.2154408945018252, 0.3653424373248446], [-0.1468402193512535, 0.23417798154273303, -0.011792612707007663, -0.028627276844713234, 0.3661607150393415, 0.34774585578744643, 0.09351817850056093, 0.22262889260133803, -0.23859493796738582, -0.15147703442247812, 0.411949431239252, 0.039124962444886106, 0.07268693657611018, 0.23031041009197456, -0.3181704336626073, 0.004120665680161461, 0.0068434737105485125, 0.2758820384381914, -0.24021735639025543, 0.28891350577395863, -0.24800562730144537, -0.1614074745151002, 0.11121816122841413, 0.1808223830818374, -0.13717469525512666, -0.2757090930812371, 0.3411738739661677, -0.1164934633465234, 0.1395963302385216, 0.08983052833936088], [0.10626857133556655, 0.194251239491359, 0.17108105382947217, 0.5019989315938719, -0.14742411089231847, 0.08329546726711863, 0.08805134278582673, 0.21709072869369767, 0.17144837862710335, -0.23703441419833857, 0.15011557697222688, -0.14641309222668472, -0.15045687067775432, 0.21481553983186288, 0.3269464526240544, 0.034829406324112, -0.30578055326843756, -0.24395466941465124, -0.15517912284255092, 0.05588443532455335, 0.6002958206260056, 0.5837503858114245, 0.17118981186962706, 0.07530150576329198, 0.46082236293917794, 0.12808118585165104, 0.3868354023455452, 0.6594069443957666, 0.4949932040686247, -0.3567894290989194], [0.13577375707467026, -0.2962480767024583, 0.03782033003910269, 0.21419633403215066, -0.2917540199901157, -0.15941373116952834, -0.3831292909865744, -0.10628545356321457, -0.04890921790198823, 0.1902243571472566, -0.12236097412069674, -0.11439194739505554, -0.07969871237551954, -0.36325766880484933, -0.004272371595168892, 0.530600182762255, 0.30015664278143106, -0.3046261278635599, 0.09778884981976467, 0.04377648010308226, -0.5433833338364227, -0.03198322270915846, -0.04126468742868854, -0.3508661463630385, 0.08679628719124888, 0.09741029540516515, -0.1932059204235994, -0.49017186811623875, -0.3623114274436051, 0.3291050036951335], [0.34717189643873564, 0.23264911229968135, 0.28648832122274975, 0.1347711845578, -0.15446559541884589, -0.41097466109403297, 0.04019420323625011, 0.48960119615770087, 0.24742275664372612, 0.13290511825481593, 0.6043658764499693, -0.3579217857552268, 0.00124788506420116, -0.06730136145467795, 0.23468022457632148, -0.0924075711278695, -0.13815474890173846, 0.07054377523682337, -0.26970869317041374, -0.022739399569088194, 0.45832514395372764, 0.6999256749117583, 0.36069200754966857, 0.4697831587612823, -0.13612474457445117, 0.09042321692863657, 0.10138354129190215, 0.5265519456476723, 0.4979551176617301, 0.19205310106876536], [0.3253175136901719, 0.0026380607659113064, 0.29905552144449643, -0.1708122448779417, 0.2950286969820581, 0.19393223210419985, -0.07208485363177186, 0.3924443989479288, -0.018262596421342762, -0.232087699873663, 0.44234592646624643, -0.2618207462995813, -0.20472981210724936, -0.04850220221601279, -0.09568272002293667, 0.06860259246087824, 0.29650173042779226, -0.14847695702401842, 0.12428964637514649, -0.2562939019019135, 0.537054492506835, 0.294997173451028, 0.46557175786910815, -0.09229526247326665, 0.44473005067928467, -0.2607567400939317, 0.47477021917890355, -0.009459448573262644, -0.057645005243671534, -0.08603234030805097], [0.02130117235951554, -0.2825771599054565, -0.05501999914755267, -0.14813125250859346, -0.1648639749850876, 0.12558521529485242, -0.3536482758705748, -0.07477830586567129, -0.3558104669733729, 0.38489718943289264, -0.3191051811828438, 0.28674828767416677, -0.04856152003308465, -0.12963308976533852, -0.08587721613621811, -0.043639683018911406, 0.17238043729008465, -0.13546523048868145, -0.07772714486877476, 0.45487588540082147, -0.10166728395788842, -0.4172145633759992, -0.34383164351027773, -0.3192532570393944, -0.21000087158260883, -0.12157154527975716, -0.45992449799232954, -0.2677028432423513, 0.05844058337441734, 0.13677368525332376], [0.3438923299491015, 0.15293486974486653, -0.09365937783151382, 0.10714538949829372, -0.22667168712273314, -0.1575933830015717, 0.15654898213243001, 0.26629197160247015, 0.13058316711963944, 0.026506385529429088, 0.2602641702606021, -0.24794358894819782, 0.1891208708819234, 0.4919559505886812, 0.2537844542755578, -0.37002133141640337, -0.2122592582710412, 0.1408059078102646, 0.03734191562864034, -0.19651713027719242, 0.3947560743614829, 0.35181478861246634, 0.25413737224779664, -0.030650134840699117, -0.06393824920416266, -0.3247922756276151, 0.04947281097249424, 0.19749239918712183, 0.3968988124887861, -0.25875051410360456], [0.04079062076890381, 0.1565653419748831, -0.12695854528827447, 0.25323928229271303, 0.0062154074856259865, -0.24221210802158313, 0.23921916850733044, -0.19769224799295076, 0.15611227813191447, 0.10417080997848674, -0.074964174453487, -0.16439894753525144, -0.10453269152849685, 0.4918408967735111, 0.021432061336373414, -0.48198280157669693, -0.20602055548320825, 0.26246649416949985, -0.04089550650952946, 0.051811631707677344, 0.298002366293143, 0.5004271950404522, 0.20856575173696548, 0.4979061849797947, 0.33468383741265645, 0.04716215619601876, 0.2869101529604519, 0.14360224354530401, 0.3661786140297753, -0.029419938668265776], [0.11385472914022524, -0.0925510328032703, -0.17784312003093505, -0.3596289073955812, -0.3527909779146005, 0.156687956850177, -0.12243401637283617, -0.373699372443127, 0.049691162644868524, -0.0705586664456911, -0.6999503189046025, 0.04832149216078499, -0.37855582370942475, -0.4174003219406429, 0.04088229983314484, 0.11521764487635286, -0.1287011347692747, 0.11168033230412379, 0.1587734977812457, 0.04637224917207653, -0.4243484861303818, -0.4663973996489805, -0.34376570109465376, -0.5503983431598554, -0.4053995652909672, 0.23084591814712369, -0.33622118441712023, -0.27760582806041956, -0.24984474842046267, 0.14215523621876927]], "biases": [0.01164946265337439, 0.009712619533583221, -0.12212443073805959, -0.0745385398798088, 0.0662451792845313, 0.04488031275020295, 0.03566724660514983, -0.01916236735894388, -0.22864090499208384, 0.03458695568006001, -0.14395457048060695, -0.11260308649300103, 0.0919520341496583, -0.11709187874335877, -0.12728201011302132, 0.12738165442136726]}, {"weights": [[0.11393149452246282, -0.3054081010530442, -0.2962839009414956, 0.1405264604817652, 0.4110551402367934, 0.5343131007744301, 0.06640842679150592, 0.14673546404135318, -0.16380880118399593, 0.30869496483072206, -0.4959868109529883, -0.3815797024605853, 0.1455624330202896, -0.554212492481823, -0.3152841449041187, 0.4204606076598641], [-0.17674090509678775, -0.32263065476968217, 0.04132786002608613, -0.2861926147245514, 0.07980388659361662, -0.4620272164806212, -0.1315853110367219, 0.09228316051471369, -0.3262525457061805, 0.04033134179594154, -0.19906048759574996, 0.02988928188412019, -0.4608011332809691, -0.061764301806503275, -0.18424880903109386, -0.24134055444558195], [-0.2576083406331202, -0.3593086920591756, 0.49238381019559174, 0.3476477019702888, -0.4315446472337809, -0.6526683068671488, -0.7038095472233574, 0.07361036337310951, 0.7718528818863303, -0.6048237999485071, 0.5948578873602621, 0.4593523875590639, -0.31649037881432085, 0.47648317487717773, 0.6790003278432551, -0.8277669302306355], [-0.5663141169111603, -0.355132272450876, -0.13441830041756903, 0.2586339906567566, 0.013538935679860007, -0.32238752455001257, 0.09843441456883305, 0.3349708938974007, -0.06898676820786662, -0.059181456358808046, 0.4834364682342606, -0.16285382737424675, 0.1455995061115923, 0.5592933810710335, -0.1503608660748991, -0.5904822117120688], [-0.22431663378747477, 0.09575348292347355, 0.4525210603718688, -0.06723817575863504, 0.13669102348857604, -0.4168327217854433, 0.0999332764702968, 0.12944921036416931, -0.2819368990381155, 0.1591799734425051, 0.36672295902178204, 0.12274329543523954, -0.39932933629952444, 0.4860684983787577, 0.30315303907110513, -0.23474953702731843], [0.19277060942915647, -0.021925891130613648, -0.2951191763938107, -0.32466072064289886, 0.3793301768845099, 0.4187112243550073, -0.23035512488806875, 0.24530659625352724, -0.25022800829616637, 0.5363328353982582, -0.273187117951221, -0.3397908600729302, 0.43149911943731095, 0.1480157702478806, -0.5134419971256897, 0.5610035646899934], [0.06456595903524424, -0.017404358809036267, -0.0748280352608127, 0.1860976540791933, -0.2040322760110146, 0.3167232308505609, 0.2843737863128506, -0.37163310555674045, 0.303957535692778, -0.20216694762109128, -0.07706208412396848, 0.07140313417625826, -0.0899687386840436, -0.40792339918055526, 0.2852297377838453, -0.260862105630475], [-0.03104526923092204, 0.3429532165234896, -0.36139085625634354, 0.19550934645987722, 0.24489600837047723, -0.06754605661941361, -0.32088879354288247, 0.2695713996604804, -0.6268285595921824, 0.3996052286936683, -0.3496759733189949, 0.0166654927587372, 0.35144895549828425, -0.05435815015481836, -0.23706081117352368, 0.498914991102896], [-0.6130296428363747, -0.33092905995313304, 0.5139732983304938, 0.0393567617083741, 0.0030556909549393453, -0.15283930687094802, -0.09914566275493765, 0.11646239358071528, 0.6236372978936718, -0.4151801264470162, 0.6736093742198728, 0.11774278516594221, -0.4531146729983265, -0.013937742066067847, 0.09807344337793517, -0.6541155138430133], [0.3521833126177466, 0.4102482788280464, -0.432034727563927, -0.2909781326473016, 0.14564056642302273, 0.40879801540752475, 0.6193095803334627, -0.014584567203866776, -0.387252856589503, -0.03046871754090213, -0.5409298987120403, -0.35552464283669755, 0.009489026896751983, -0.546675449890646, -0.13452075435745892, 0.1733721863281253], [0.6196956495484561, 0.14766516331507407, -0.06465641577860654, -0.4493183906830822, 0.40308632316307974, 0.11067625370017989, 0.44179949906057986, -0.038221383160089724, -0.30631117834723603, 0.16796762749216101, -0.6065896542344623, -0.5895709813710094, 0.5842753851745202, -0.24184289661362665, 0.0334929645098775, 0.1855493243724025], [-0.11179336823665147, 0.2327002054244039, -0.5847522280916226, -0.39823370728491486, 0.15333869602588604, -0.016265207508588047, 0.5690620900839328, -0.41746986291312516, -0.010430948692307873, 0.34251745964447083, -0.06423697048371256, -0.40578275465837893, 0.24029887208915646, -0.20387156417237934, -0.2523002547909059, 0.6027830911688056], [0.4723584088143534, -0.14346088965625814, 0.05055040770114271, 0.06255230818625908, 0.22933008345016898, 0.4181036914190155, -0.22722416851995686, -0.2775041377044472, 0.07503805204902902, -0.25029297864442107, -0.3568621599822457, -0.41444678754644765, -0.3868709851930497, -0.08922752439308675, 0.02851250084189869, -0.12033251408107003], [-0.5809774426826816, -0.018379736276164314, 0.3375069665439688, 0.022431585254927187, -0.013979035326626973, 0.12055685758531105, 0.026619253313442615, 0.15658382419445838, 0.35849672463237237, 0.028509362022068614, 0.24132237630428016, 0.17479911776553972, -0.18126268366372017, 0.4704608914651887, 0.4617478901755392, -0.756951967463809], [-0.42802597140757265, -0.2291491598081478, 0.4199630569114996, 0.17930860736207388, -0.23297327340275018, -0.4000127493952728, 0.07669283682396652, 0.2755511869393139, 0.6191809602323077, -0.15550208468751736, 0.26745522626655605, -0.18375236303947978, -0.5386028714531824, 0.13944893704743813, 0.058646070270541216, -0.411669743312415], [-0.14091793435590072, 0.48029359214139483, 0.02351851604606926, -0.08557844227636603, 0.4564288298610858, 0.5429491995677408, 0.2577188414425274, -0.32666624774533726, -0.7104698967242107, 0.44037251832560503, -0.4048087149667924, -0.10937416283516932, 0.5599819996409335, -0.5185343112770165, -0.20096700050448935, 0.3836224325432089]], "biases": [0.03993334410843069, -0.010492807153807232, -0.19984180091715195, 0.047845344091938496, -0.014871265726098969, -0.06769643746685995, -0.00020846144103489354, -0.029060398106359023, 0.1010873288079227, 0.1442151183099835, -0.02643087483238808, 0.03761917483830624, -0.008207696897378772, -0.15376109958354955, 0.061528379458039774, -0.05879065820661975]}, {"weights": [[0.6052284072671098, -0.44150208822408604, -1.399973189453039, -0.5559416756692767, -0.29895641911544496, 0.9290130890556058, -0.34495506435557527, 0.6135307454784863, -1.053786358225935, 1.149714507582772, 1.134053623842948, 0.5655329368991597, 0.11214400420865189, -0.7316655542206879, -0.8792970547049358, 1.2436269356629261], [-0.7254317412032059, -0.013636224872301598, 1.7880452594036098, 0.5455133212442064, 0.54459252049167, -0.6161115690591735, -0.21231934459078608, -0.549499098262615, 1.1053563805623046, -0.4908397456938631, -0.4717675427503823, -0.8499878173234996, -0.10747260811636199, 1.011322382942191, 0.6037738222351644, -0.471784963118291]], "biases": [-0.014714464266055839, 0.014714464266055721]}], "means": [14.036749450549458, 19.16942857142857, 91.30101098901098, 646.3925274725273, 0.09631446153846142, 0.10279531868131862, 0.08503131582417577, 0.04730564615384611, 0.1812586813186815, 0.0627919120879121, 0.401786593406593, 1.2163573626373632, 2.8367553846153863, 40.06503736263736, 0.0070851670329670395, 0.025134830769230766, 0.03110941230769228, 0.01168316043956044, 0.02060302857142859, 0.003765091208791205, 16.141734065934056, 25.496571428571446, 106.26301098901102, 868.4828571428568, 0.1320549010989011, 0.24874670329670345, 0.26143682637362625, 0.11198138241758247, 0.28951626373626377, 0.08382382417582417], "stds": [3.482944614829845, 4.32327039707403, 23.962108253343114, 348.7200196719216, 0.014074597415285696, 0.05227466020151787, 0.07760719057210037, 0.03739580346345016, 0.026902160671784917, 0.007270331890255717, 0.2819976924082182, 0.5468817212918659, 2.0752442354471734, 47.71185317257382, 0.003128152101114071, 0.018043669396800393, 0.031509885176132894, 0.006215489130237885, 0.008584389688909273, 0.002552797863127563, 4.794921370706414, 6.07870595168871, 33.25865780613842, 567.9594455153276, 0.022495429219275834, 0.15497206682336456, 0.20339719007536033, 0.06448048306596955, 0.06218735569244246, 0.018686174047688683]}