{"network": [{"weights": [[0.05509470200600674, -0.407040054738674, -0.19990929082998665, -0.25154615353915877, 0.08339174126610037, 0.18358621321215451, 0.1588132343541394, -0.42242963704587333, -0.088965510153094, -0.29873810924330685, -0.3408502258694448, 0.09686617586324614, -0.3968713373836458, -0.31872184127611486, 0.08906024471513839, 0.20368235232555068, -0.21868758613055275, 0.08111834122875158, 0.23735520274294417, -0.1995247485595413, 0.0793178448648763, -0.07952438682524378, -0.21739948054269914, -0.380765342057682, 0.16481669320140144, -0.10141420691925843, -0.47831362356843254, -0.43331047838892367, 0.021055750816969258, 0.09497907506161456], [0.004660679927841576, 0.04597228377195845, -0.17240576079853306, 0.11181914410823057, -0.2140274179747853, 0.12545690098888782, -0.03799197346806567, -0.2350605656843401, 0.19572508917382764, 0.18819295972609015, -0.26444119061656, -0.08541455166223977, -0.4434256909384263, -0.46424050463271455, -0.1488105441016326, 0.21706992433387617, -0.2732860795178437, -0.13232244181464514, 0.21080157486680579, 0.2879609542680625, -0.4691596814078351, -0.5488605801503087, -0.46643704924987417, -0.04694020796559381, -0.10870107192937678, 0.14315439575324448, -0.5761880548944449, -0.13922299024917337, -0.5829726866327276, 0.015673359227589553], [0.22483875432538541, 0.013448086650738027, -0.07928078286775087, 0.0010854969772582997, 0.23180024246594974, 0.2357452122880414, -0.29158594565137663, -0.4667628653419391, -0.10655578854272364, -0.06446681131815397, -0.36701758966014403, 0.36916370219311967, 0.16749244593414417, -0.2678140678144708, 0.16775711407768348, 0.07234803521993954, 0.336077483811205, 0.0031624295714260827, -0.08223932015788377, -0.01737693742653323, -0.13861297583397875, -0.3428016536368308, -0.09390757723831941, 0.11133834313386831, -0.14143218628271653, -0.1727468138635465, 0.25062869518342884, -0.1091270300142801, -0.35096762329847037, -0.2529124598878046], [-0.16782156042657692, 0.20201250462927592, 0.3152685965087663, 0.06431873191576812, -0.2708874771638295, -0.14558143398237705, 0.46985524176390503, 0.16288699036557533, 0.3171653319119177, 0.1565370367273941, -0.16050253291309818, 0.07542050525026066, 0.249084877240058, 0.18024680909831903, -0.19515900194393768, -0.09047516827868178, -0.3190984835905419, -0.0802421180443144, -0.10242837865853541, 0.1341341593578297, 0.46118979190856313, 0.04076925184173219, 0.15323187979359576, -0.04893024398563801, 0.4084349765744748, 0.22331944104637289, -0.010739345309682898, 0.23057649784732864, 0.19275897894496505, -0.32098863259548266], [0.2118558010748466, 0.11689737290835787, 0.2168668233548647, 0.061873523108238876, -0.21645771748361392, -0.1693854397368345, -0.16417243390526218, 0.4797780584057434, 0.35168765410227937, 0.2634097916472302, 0.1263065365162648, -0.3666977167029221, 0.42862670118045737, 0.4972260174984148, -0.3439873482900863, -0.2480837923420327, -0.2847750018277961, 0.18393300804209772, 0.1345109034033591, -0.4679525329166367, 0.1344895260468698, 0.30242234228410264, -0.06357437521765477, 0.42088057969285847, 0.16129962561573946, -0.21973716197436566, 0.2844466501780608, 0.34424320708992406, 0.024866059285292865, -0.12066537549368858], [0.44659328116633873, 0.21044340667342562, 0.03743441235088238, 0.13011566074798392, -0.04418795195272192, -0.21488554544463973, 0.23127784133256984, 0.375784698584678, -0.12569354452710554, -0.13534332190991874, 0.15826007173552897, -0.060331422729901996, 0.12050396120342115, 0.6142478916734565, 0.28912975241698474, -0.5580757215381467, -0.04036744773131438, 0.2096021144545985, -0.32629701253530163, -0.44820017938728457, 0.589599344454926, 0.35866849610286033, 0.19179162913748263, 0.4806982284901924, 0.5003408797681922, -0.21212825570352722, 0.1410818376218079, 0.22140447258774978, 0.2286935034672189, 0.02794483898517811], [0.28577326231301375, 0.21740575385056998, 0.4662655125842371, -0.16787709303023074, 0.06129466344274602, -0.1032437083093628, 0.4479927665047246, 0.03841872841028536, -0.14883436962501267, -0.08735474180392848, 0.14564852888209676, -0.28986174007818977, -0.05067270016167333, 0.46302811592174237, -0.025679140672797536, 0.08321971148171706, 0.012162511996908392, -0.284502640156503, 0.2908993334123869, 0.059615886732520704, 0.5518678966130302, 0.5349163268868093, 0.4325176018834709, -0.04287517171096965, 0.19008757305365076, -0.18043019305659155, 0.15006599692074124, -0.0843677846111109, 0.1261881963476581, 0.33982309411192546], [-0.15264726035888976, 0.22938312639328495, -0.018354154926590552, -0.0327898456643875, 0.3748192752582378, 0.34237591792749456, 0.10441411512455429, 0.21847690040683523, -0.22761170135405143, -0.15220879559111428, 0.4017608721235099, 0.020673563417023182, 0.05832607469179151, 0.2282929495041046, -0.2790853035079574, 0.0031569135069161635, 0.028267531354372634, 0.26597087635789424, -0.22563406034269431, 0.28257462402200806, -0.2468661315853033, -0.1426831656115322, 0.10846188667290982, 0.1830593529315574, -0.11165393424604544, -0.28802073509995785, 0.35985504501452686, -0.12488573955299154, 0.16536151823178113, 0.07519708026093322], [0.09758486140535327, 0.14522395932972346, 0.16161194990163363, 0.49037363521303445, -0.12553444426664026, 0.08760081690442478, 0.07462121470243227, 0.18908238548881529, 0.1872628075933863, -0.22914179738283308, 0.14804023205483977, -0.08934806382471897, -0.14905972198012904, 0.20949769009496555, 0.3218539963796339, 0.05157068480434878, -0.2866905990385085, -0.251026212328765, -0.19223774713642866, 0.05026824624424051, 0.5906055712430036, 0.5694469086167914, 0.16025700683866798, 0.06291931849722819, 0.4444018975299188, 0.10183958745435889, 0.3864628771447589, 0.6153298416638596, 0.4442218694447031, -0.40734251789054804], [0.0843734305229301, -0.3288854537906132, -0.009093108347511359, 0.1588191918347594, -0.32683500748671285, -0.14926949673201056, -0.46873948056106196, -0.16562209470580821, -0.04485751041335672, 0.21420849083143267, -0.2216082721094046, -0.0860633867652399, -0.14163112395945326, -0.4447491374880772, -0.07987769470944882, 0.5428871551313689, 0.2281931131218196, -0.3221265131499487, 0.14653869976471395, 0.07838548842963648, -0.6369287982425815, -0.1475674421888306, -0.11516635594229387, -0.44117767046075895, 0.026281664432759592, 0.1052256651410252, -0.31062240827855014, -0.5325393664775269, -0.4047474003097172, 0.36538883091380536], [0.2940147995692802, 0.07349311564510826, 0.2394347496951665, 0.06790319680357247, -0.2379065956925429, -0.33470558309061216, -0.09784490279825277, 0.32869907151432065, 0.22522926384030414, 0.22026988742921125, 0.37439717795652266, -0.262897372189658, -0.13776622602619135, -0.22936713049261465, 0.1811317906098495, 0.13924742323385417, -0.09683097403851719, 0.052699578388194994, -0.2706913986901541, 0.19124046523846436, 0.3170672630688519, 0.4559719185813446, 0.2573414589074517, 0.32796326022403427, -0.2980912660317515, 0.1254621462439531, -0.05322980617813749, 0.3562352201912912, 0.30631841792674425, 0.22452460275095013], [0.04552517876824035, -0.29164324904670746, 0.0380577327251486, -0.46364090598448776, 0.10866410326827687, 0.24623852185756834, -0.46176585854849356, -0.050744850290554144, -0.053206307530905265, -0.07265493809282288, -0.07387703464144507, -0.07025033755879923, -0.5151643811373244, -0.44375718986407825, -0.17103106706567006, 0.41270453351044284, 0.2576404458298893, -0.23920685805688072, 0.19410421506922762, 0.10590621818638433, 0.056053968081635236, -0.27591330911323136, 0.07797108872148623, -0.5501261349483607, 0.1131414961854477, -0.2750386675718972, 0.012376417497691349, -0.45225692469333195, -0.4991144892899119, -0.035262585515060556], [0.06719657648301867, -0.20651363587333518, -0.014056723635354791, -0.09490821435565315, -0.1509855880497832, 0.08144046743609684, -0.29871758519226776, 0.009427840133628844, -0.37404720132736347, 0.3545169935351357, -0.17350822068324587, 0.23308025284714556, 0.04490034006906975, -0.028503903253599725, -0.09369068059901471, -0.16224387355971345, 0.126565833137382, -0.13245744109185936, -0.08648574106340601, 0.3831585019640362, -0.010798772133337188, -0.3124469539963216, -0.27398774745279897, -0.2285242818639882, -0.16883698888141477, -0.1313795183819879, -0.4098716285786282, -0.18649583177495144, 0.17169279704590507, 0.15567955972008654], [0.04437125661917074, -0.18474509873974232, -0.36237732348212887, -0.23839157235014877, -0.40633686547522174, 0.06250763020346671, -0.3316033388140367, -0.2627770318473787, 0.11645819806110086, 0.23424899192434173, -0.5996218101166754, -0.07933412635298333, -0.3757308906899669, -0.12486606522199158, 0.09851007193229781, 0.205491371459418, -0.34469237578999895, -0.06250134821581632, 0.10457881787560376, 0.2831297302019223, -0.19324016071583036, -0.29022870229464, -0.201773299276149, -0.6191111121979158, -0.3807330347487813, -0.1166762555796501, -0.47532121332516913, -0.2568418387361277, -0.08164805890396806, -0.030668012104415165], [-0.17304801478540094, 0.016864764654662794, -0.3285681236785123, 0.03212114272568047, -0.05701786921169402, -0.2161244226106556, 0.0038098482341657166, -0.4868021294709065, 0.1544911851087721, 0.23461464023134554, -0.4092513425580427, -0.03164424543878969, -0.32134680157999235, 0.22705717532773972, 0.01801083509155913, -0.27697521498185, -0.1854948963021724, 0.2258893430036349, -0.010749492550104595, 0.29074878688542743, -0.029883697653415496, 0.21610495295239723, -0.0645616692338163, 0.18350117679272135, 0.19773067353323637, 0.04126721336695552, 0.040216869422956734, -0.12640602921142033, 0.1355517761238632, 0.033503787800582836], [0.3910544378698559, 0.25259512700189624, 0.07881632892250012, -0.05606812915815767, -0.11085965544340116, 0.07070657572214024, 0.34158381124608916, 0.17917062069644651, 0.10179570972072725, -0.2135852259709815, -0.10375883844045601, -0.23002736128212406, -0.03848446564189813, 0.035800467159182545, 0.036563516562937805, -0.4049777868457938, -0.18303541513339497, 0.12050861231312558, 0.09162905574557514, -0.4389295277242923, 0.12805866141408262, 0.23896213698081092, 0.09805342519941179, -0.016462478166704684, 0.09174892722595275, 0.2700213010000887, 0.2217216901760408, 0.28549908038631966, 0.37122352901758676, 0.15949200948494785]], "biases": [0.01769624448868694, 0.10264977546673332, 0.04601786954967765, -0.0627483399316313, -0.07117891793744062, -0.1662734610901629, -0.02959078527820632, -0.034778999177259726, -0.17932797993309135, 0.09025858790844173, -0.018930206175357605, 0.0139539705627631, 0.036794575058907084, 0.19903782737425496, 0.01463667677264708, -0.11935244592066607]}, {"weights": [[-0.7884167363127866, -1.2220903284489761, -0.34329558662789705, 0.5276698019991772, 1.0406620070869272, 1.21197797993639, 0.3101565528260951, 0.5308723689464169, 0.7307219573423971, -0.7848177525861273, 0.3252240593957845, -0.780620486721314, -0.5486427798954802, -1.2260142310356907, -0.17148246633269515, 0.6359931445495353], [-0.07055391514743171, -0.29366089056293704, -0.017639194827893785, -0.3895572746493582, 0.09083446847190017, -0.5151352293375273, -0.12763389895506008, 0.04804912018876307, -0.5034715084728721, 0.18032390759118683, -0.37624952574579035, 0.0005564839187549096, -0.4284201240611845, -0.0860607408185888, -0.27202614462322827, -0.19384914591694657], [0.3111328925670031, -0.03258118679073187, 0.26405354065691466, 0.2348973907509928, -0.3854306095716157, -0.5802462267908788, -0.5927649635899398, -0.05018247065557927, 0.35826081382747116, -0.06406271148496362, 0.04796672161135953, 0.34939195221860136, 0.18857902614072464, 0.33005430808340425, 0.4455019966648152, -0.4124579776710128], [-0.47123277122194585, -0.35129289299437744, -0.37708026137121864, 0.16925677804451075, 0.06644386008916321, -0.2733971657212649, 0.2022561184653972, 0.26794456729292704, -0.33359340365364176, 0.10968142924694167, 0.23651436285708963, -0.3928108895686029, 0.3219708305317926, 0.47006855162942873, -0.39468022881218745, -0.47266699521853134], [0.2012782363211502, 0.6125737970405858, 0.5545148763694948, -0.3756097317396204, -0.2708259964306757, -0.9511253542006262, -0.1450370539293655, -0.1419599752526025, -0.8915862849817132, 0.768564601038517, -0.08384629079718872, 0.40568656664427105, -0.11757927966382035, 0.9363839240912253, 0.30562031439132226, -0.49522259067602603], [0.21858329709395252, 0.16270510898736645, 0.046392159390983186, -0.4562368424022037, -0.08491181447823984, -0.12324417735279311, -0.7196633330515546, 0.18081591840635391, -0.32334118438103215, 0.6891022134045293, -0.23096140737108953, 0.12010608575018888, 0.41077820380193075, 0.8068572292840178, -0.24506774233103853, -0.027105663796162832], [0.20220467531714836, 0.08184535984616169, -0.05994504567876687, 0.12559238296286945, -0.3844856275947989, 0.22833848808222446, 0.22681313190980035, -0.52432416284804, 0.21431120243881532, -0.09869201749062946, -0.25105482622219544, 0.15157548012233743, -0.03981202645834585, -0.3126320754452529, 0.3391251757804652, -0.42526583574179394], [0.11273784779611665, 0.7351810678385756, -0.03302841313308652, 0.09679961713238718, -0.2818004620737619, -0.7283720874401081, -0.8127940594986393, 0.18302599462009217, -0.8995460937670166, 0.7298145546939444, -0.44318937746003606, 0.5690091475849252, 0.461714286519741, 0.6168338238855648, 0.02220980194566799, -0.054603571652018054]], "biases": [-0.08490967007943635, 0.001123601087429066, -0.07147205083469586, 0.004934543456344016, -0.06350720690253886, -0.14096037690184918, -0.02246547860868563, -0.04506288716650742]}, {"weights": [[-3.022996723456429, -0.22392472265944144, 0.6295596053450452, -0.46350199450226864, 1.236768526458875, 0.41055852383253594, -0.19193828265691013, 0.9252899458553187], [2.773559225271387, -0.4695132743356039, -0.018182696842580257, -0.19161707794272062, -1.4955469257467384, -1.0396605728549961, -0.23640403232898355, -1.6300822034598696]], "biases": [-0.3975072473740749, 0.39750724737407495]}], "means": [14.036749450549458, 19.16942857142857, 91.30101098901098, 646.3925274725273, 0.09631446153846142, 0.10279531868131862, 0.08503131582417577, 0.04730564615384611, 0.1812586813186815, 0.0627919120879121, 0.401786593406593, 1.2163573626373632, 2.8367553846153863, 40.06503736263736, 0.0070851670329670395, 0.025134830769230766, 0.03110941230769228, 0.01168316043956044, 0.02060302857142859, 0.003765091208791205, 16.141734065934056, 25.496571428571446, 106.26301098901102, 868.4828571428568, 0.1320549010989011, 0.24874670329670345, 0.26143682637362625, 0.11198138241758247, 0.28951626373626377, 0.08382382417582417], "stds": [3.482944614829845, 4.32327039707403, 23.962108253343114, 348.7200196719216, 0.014074597415285696, 0.05227466020151787, 0.07760719057210037, 0.03739580346345016, 0.026902160671784917, 0.007270331890255717, 0.2819976924082182, 0.5468817212918659, 2.0752442354471734, 47.71185317257382, 0.003128152101114071, 0.018043669396800393, 0.031509885176132894, 0.006215489130237885, 0.008584389688909273, 0.002552797863127563, 4.794921370706414, 6.07870595168871, 33.25865780613842, 567.9594455153276, 0.022495429219275834, 0.15497206682336456, 0.20339719007536033, 0.06448048306596955, 0.06218735569244246, 0.018686174047688683]}