{"network": [{"weights": [[0.016893069505145613, -0.40594565270462907, -0.24506896275485254, -0.27669987949164243, 0.13710737355629227, 0.09440387999616835, 0.22284936053403226, -0.3789100800266198, -0.08494283080979823, -0.30127589231041974, -0.2514137640092641, 0.024010187454682867, -0.37804860585808786, -0.26186534650105353, 0.14047069646660165, 0.06041014944014521, -0.1867264928333987, 0.06409829509352634, 0.23570873544939502, -0.31286369099239114, 0.12479256238234697, 0.05742857193103608, -0.2063592770807636, -0.3330017095232215, 0.2622148437323646, -0.1698195898244273, -0.36159188724061936, -0.3856871182189568, 0.16467010156024245, 0.0515479876295097], [0.07226867390027257, 0.0778918166674388, -0.12261300969162577, 0.1986515082092184, -0.12636762614261676, -0.03750355412447396, 0.12146551608798611, -0.05546160736496449, 0.22386420011524807, 0.09941155380102869, 0.042747128612856004, -0.30371180867599656, -0.28869214966913337, -0.25034964252924297, -0.2634152480173494, -0.19950941505875736, -0.31052709339048457, -0.20810412923305915, 0.1274659511256854, -0.07466769375363516, -0.2561444298144585, -0.3114463933003272, -0.32597096213712146, 0.16472142304382778, 0.03797509857468545, -0.0048316745747238096, -0.35045800724271486, 0.01701984888663054, -0.3198830905408911, -0.1200821097502247], [0.4827448692664881, 0.19978195701715346, 0.1704270755942136, 0.25436100393421857, 0.2968543587216375, 0.27568293294056856, -0.09794271072417671, -0.20573844446679432, -0.08292950789556301, -0.20001141771218364, -0.11815984287559256, 0.294545358556423, 0.34857856740770904, -0.050941434584518025, 0.07076240999797286, -0.0875594105826208, 0.26909772233357016, -0.019755260695948372, -0.1899020444498346, -0.22877864006277585, 0.19254068918944445, -0.0479698593216762, 0.204419040420044, 0.4210782372147774, 0.019602202338004308, -0.10758475750805072, 0.4609810990855383, 0.1509847903889396, -0.18514793338206764, -0.2726029461286795], [-0.1746756785339659, 0.16153639542944462, 0.316095309627514, 0.04643386540402848, -0.3027262677786825, -0.055366079697225304, 0.41922749740920806, 0.10818456004400692, 0.34424239785271965, 0.20375133798398043, -0.28106707254898855, 0.14260265247299095, 0.19173314893103935, 0.09602524718975902, -0.19892071742101636, 0.07967791880150443, -0.29597836868342936, -0.036772542688253224, -0.05963792409213771, 0.2845059453537507, 0.38773951463668277, -0.09055634472143495, 0.11107903614206259, -0.12432136638692283, 0.3361342209745788, 0.3054943434310304, -0.08932674222901442, 0.1905236114662011, 0.12056867208753497, -0.25084916815691427], [0.018629567756754097, -0.07566490684909671, 0.03209651495710874, -0.14225648169680488, -0.38758967850667314, -0.19903778425941718, -0.46778420500889545, 0.15842970910852733, 0.24007733362644265, 0.30171202112983303, -0.25922322747777904, -0.29715737654036417, 0.16767635913017, 0.21044995596214422, -0.25210271197147066, -0.007262221519420608, -0.3283187600053212, 0.14161367762132676, 0.22030751113681274, -0.23443829880562583, -0.20328835794433459, -0.0830487436806577, -0.3488281387411638, 0.0964670272017438, -0.11929903516944039, -0.2888341055408923, -0.08664071894932482, 0.006710657680260073, -0.29753610652223267, -0.1572788562115268], [0.15804045036098252, -0.027585926644641396, -0.23975255292527442, -0.1792490131781784, -0.27798830710175365, -0.24918497905435605, -0.24026083825590933, -0.09326627197330516, -0.19776814907754417, -0.09835642507699396, -0.4406028378249538, 0.11875015953879349, -0.3081588785564177, 0.16767543866506093, 0.3093669933589672, -0.28981427070399607, -0.20519640173709644, 0.08049017704513267, -0.1517615196733306, -0.213215886578955, 0.09962253916187973, -0.10052375544182571, -0.22475898365436464, 0.005114924568736521, 0.162664223708267, -0.2909921345628961, -0.41033590901562506, -0.2160807220460815, -0.12155443451076563, -0.02337166748785455], [0.07415773722894539, 0.05977977571736384, 0.25943608645302807, -0.3772800912747728, -0.08817593296016045, -0.1531676959157958, 0.20326285727682405, -0.26113465770941824, -0.23667241093728342, 0.0008353694975446698, -0.12163522218420973, -0.1528750336978984, -0.23744044068136436, 0.244664990954539, -0.01888172864879185, 0.26744386964534833, 0.046323882743464606, -0.34103013297611157, 0.37549228112373967, 0.269487481390213, 0.2399931451483326, 0.23409011018897716, 0.15673603535125843, -0.3321405036969187, -0.047984613036322184, -0.2511581343041442, -0.12676502144981885, -0.4012146052802732, -0.13146680014408804, 0.33830086630871187], [-0.13844864927259676, 0.22714321988595404, -0.0017406411644339962, -0.0262293936977155, 0.33842064910541536, 0.37098852375165237, 0.06263285404871913, 0.18640498056624943, -0.24116524849713553, -0.15886765517252205, 0.35849325513006025, 0.052636392803452385, 0.04685998393228391, 0.19757572927016137, -0.32888946636482524, 0.05749264929620178, 0.002413279334585088, 0.2609817219965841, -0.2517111008163101, 0.32357689903328357, -0.26866838466056026, -0.1998455955660045, 0.1017642002765841, 0.15803049581793777, -0.17372576170972603, -0.25718742000762557, 0.3049166647485132, -0.1514242735321904, 0.09054875534774749, 0.09271938829674581], [0.12428871458124889, 0.16206359092517802, 0.19648036747659692, 0.4880538785133537, -0.17145438359068638, 0.22041832181825471, -0.0696240911835811, 0.08783842679866503, 0.15878634745383996, -0.22526290612809471, -0.0016799088097581754, 0.13350684219072523, -0.19891948341186033, 0.09369991089364098, 0.2882029507320443, 0.31146328186707967, -0.33321982676354456, -0.19043838371511185, -0.19428627574412216, 0.23232021230004485, 0.47709417390508535, 0.3975033553173396, 0.0982916893161237, -0.061832278252310205, 0.31671143595405366, 0.22060721170137026, 0.1915224355904515, 0.5200124954764139, 0.2203649935727004, -0.3408501297475472], [0.12325737257027602, -0.21867421106782758, 0.014638800522025323, 0.21666938936687588, -0.2709521378246511, -0.3033029218641194, -0.33726485510265686, -0.042857718870469616, -0.15837951538619355, 0.1379954281158483, 0.08901421783737962, -0.19268727597941773, 0.040611621740297386, -0.23577689257641363, 0.023504261618949585, 0.31709253131004844, 0.27543375021675087, -0.29625650995749975, -0.015808714365674575, -0.11234552738929636, -0.4727319798931296, 0.11153412100025378, -0.009430552305071813, -0.27649848444871916, 0.13527430853369163, -0.003918798925990357, -0.10662002401279314, -0.44031550746623754, -0.3412921979896844, 0.2735573901570091], [0.39859969811189255, 0.11851987598704801, 0.3454937063222787, 0.1599340652636225, -0.22226451555427426, -0.2564408342631804, -0.08553088205239572, 0.37875262568137735, 0.22207142440712657, 0.17718070972371694, 0.3643908736428948, -0.2256714928402021, -0.1226948083514735, -0.21706444490198795, 0.16534539391079223, 0.20352297078320533, -0.12810170741653315, 0.06385988290999736, -0.27021948368824794, 0.21151907026290565, 0.3843806837597848, 0.45092048493746767, 0.3369324810909527, 0.3840141552437113, -0.27662073271223864, 0.19543042597626661, -0.071423176713197, 0.4052456628144927, 0.287122076054059, 0.2455779458987552], [0.32604591402353417, -0.07979798084054367, 0.3073662149055641, -0.18598925176705636, 0.27641912252333245, 0.29054316144406883, -0.13893502620333326, 0.3146305869481932, -0.00817669577758847, -0.19451601252643522, 0.28854510686809515, -0.19952075710867018, -0.280788513887279, -0.15186187517062186, -0.15376358361477901, 0.24244151876745434, 0.3200840992737887, -0.1507200530758515, 0.09517777732430042, -0.1185784953809541, 0.4610388467487684, 0.1285993117463229, 0.42535011091340474, -0.17362220258007172, 0.3788282108580422, -0.18599844810617272, 0.39539816797296085, -0.07606580090003119, -0.21418105733394827, -0.038754004377458184], [0.021466119886368946, -0.21900060004576805, -0.06496156929954046, -0.1287109668372263, -0.1144953018352709, 0.001641990483243824, -0.26444013114543147, 0.02501783235245353, -0.3820219270753748, 0.3670116594479991, -0.07438458804028746, 0.18233853917035983, 0.08891158404964904, 0.02686958319849802, -0.052987454906165354, -0.2825440472108177, 0.14651257289706007, -0.13393307496194629, -0.10919952715707812, 0.3059524327483935, 0.0008673155682266552, -0.24793260971401085, -0.2884399191812626, -0.21147078628935698, -0.13432090919963888, -0.2114514495064786, -0.3505343402692079, -0.18722201963442636, 0.23676843193698802, 0.10864746710481026], [0.39289097159240144, 0.1543178498372821, -0.04049933277628672, 0.13213875317893548, -0.31554258535353447, -0.07703281549194392, 0.051666550716116054, 0.17081563635529837, 0.14846918940110937, -0.02815354409841945, 0.04018916979863987, -0.21111691123200796, 0.05520879996285587, 0.36197821809591396, 0.1997237093415649, -0.2091298187257547, -0.2639376051321737, 0.06417912502084926, 0.07887877119559417, -0.11121290132114432, 0.34477636299170794, 0.2657192910173919, 0.2380674756722555, -0.09310908674009635, -0.14947009056948987, -0.2600355603720044, -0.08143800796857924, 0.10369020351356932, 0.3154030076832061, -0.2575455559704116], [0.0217238601878034, 0.1426171993051112, -0.13870634988189837, 0.2206801003943237, 0.0002243038156874282, -0.16170144859297372, 0.1574895588523937, -0.2897156429170812, 0.1830799163959031, 0.14584426466739117, -0.22958361403918295, -0.06678810455388443, -0.18727529113755573, 0.3827768203954078, -0.01097625562680339, -0.34192468746410115, -0.20158080974257023, 0.25670720728922625, -0.046624488426626344, 0.17711047950836914, 0.20896379015955205, 0.4081894256242958, 0.1529543022050786, 0.4048871432544841, 0.3025993858803266, 0.10935956244090428, 0.19735316772190054, 0.07036509581955332, 0.2693021723757605, 0.028081663962745983], [0.04422439760370835, -0.011691555164346923, -0.25886235774769034, -0.3977944042891874, -0.24823014652531622, -0.012233895916755534, 0.016834951970933945, -0.21470875461316868, 0.019668111125452768, -0.0608169654190856, -0.4439313734466993, -0.10286111886372427, -0.2758562363763748, -0.260629564258881, 0.13046513759202252, -0.21448919289099597, -0.16017210477661054, 0.12102008857692839, 0.19429764168683125, -0.2112029029181578, -0.3361747765963884, -0.20380382315367215, -0.31959071348235996, -0.4504790103833329, -0.20977463783977765, 0.13321132847188588, -0.1271359659945816, -0.1206201948604205, 0.055049303590953134, 0.1256211014270622]], "biases": [0.005531395108864508, -0.005870794134686461, -0.04396244465878966, -0.02055527960392389, 0.009032060013607013, 0.014369970220799276, 0.0220988687966846, -0.004946990333402955, -0.04675558651915918, 0.003279808527410132, -0.04417848739755569, -0.031157413501045728, 0.0050855282864145455, -0.03566386395665779, -0.032118245541008436, 0.046096092066441864]}, {"weights": [[0.015418965014344152, -0.38311612653796506, -0.21181621556619393, 0.17123337521529516, 0.3499303374911439, 0.46683383039990595, -0.026058475259781434, 0.18328261546920485, -0.07156566163220038, 0.19105081270020247, -0.38483964280377986, -0.3230786658750582, 0.04212700723124713, -0.45209534492650155, -0.21664029668750848, 0.2722260510217601], [-0.1590075269960836, -0.3100550149903773, 0.01073961265272868, -0.3014089298759786, 0.0877832966249055, -0.45244911638086677, -0.11409827773981335, 0.07393949430860955, -0.3560856479999427, 0.06303350434780788, -0.2326835323109382, 0.00798282531854681, -0.44231613564468375, -0.09419008566222442, -0.21366267541298356, -0.21111991074024383], [-0.07883414613960758, -0.21241874419014717, 0.3637585036636709, 0.33589004491349067, -0.3147664037780124, -0.5350815654771559, -0.5342803955871656, 0.055831919565978, 0.6308445827977142, -0.3841041120257621, 0.418398255264907, 0.37325926089765576, -0.10852515829575607, 0.2830431980592054, 0.5109783845965449, -0.5421998394449848], [-0.5173740481845903, -0.3204019195042095, -0.22817041483086048, 0.2085153050074556, 0.03728965835668058, -0.29626147070768893, 0.1499564939339936, 0.2811722142137381, -0.16710260108051067, 0.010252751212514795, 0.37368873270753505, -0.23776676250440368, 0.20220985526204405, 0.45535400060232295, -0.25137889740155517, -0.5014569144196068], [-0.16944847864224427, 0.14003153067094432, 0.41155248244492637, -0.08109179196732, 0.1715699116922929, -0.37736967456195847, 0.15368659387458974, 0.1099081144574138, -0.3265943296916147, 0.22514150405019193, 0.31168485044092975, 0.09595496331151673, -0.34419753184885915, 0.4368351170032893, 0.2550479669914817, -0.15363931287167504], [0.1021876734268947, -0.08847691806740979, -0.16253353608744547, -0.2535279823787557, 0.3259900490870611, 0.3609888538950964, -0.3126336674300964, 0.3076125186821756, -0.09906188178761847, 0.41747894573776817, -0.10224044929474059, -0.22825069169772666, 0.32263832227686934, 0.30512335093553783, -0.3591527745399392, 0.4087241292903112], [0.07021990025780979, -0.011597838871193793, -0.07696195048740108, 0.18681807321820232, -0.19910756732698107, 0.3215745049599095, 0.291043895594081, -0.3723732631998162, 0.3020757365757119, -0.194988706529209, -0.07947377738183269, 0.07065762412890263, -0.08414713108883123, -0.41177112584040687, 0.2824766135775625, -0.25170012227930244], [-0.10774526618058593, 0.28812273782355285, -0.2581187521170084, 0.2513987704057865, 0.20290173803018807, -0.11786943780730334, -0.39105275625552316, 0.3256496826237138, -0.5135415398138956, 0.3042234268345124, -0.218447718590666, 0.10091913747404621, 0.2679225567611288, 0.06363030077244983, -0.12003523089819366, 0.3771860192539283], [-0.5068151492439604, -0.250747273236568, 0.36581642362878314, -0.030861576136236236, 0.06216566779964815, -0.08836880939817673, 0.00836585560919125, 0.0452885324316989, 0.46072472082779925, -0.2706081331194967, 0.48572737632146135, 0.00034772201370543345, -0.3279081272618332, -0.19700776643375967, -0.0791582936434846, -0.47004976678424987], [0.22214360581561388, 0.3071244065097329, -0.35423264901104, -0.2810407090532326, 0.06477277429530369, 0.3193861917803828, 0.49318836008987654, 0.004809886906158405, -0.3068358878796716, -0.18343406590396114, -0.4359082531806897, -0.3155851007621109, -0.1239100302007752, -0.4447907433214442, -0.04311025058204066, -0.0164760858556146], [0.5230614220632871, 0.0737314646522813, 0.04945241153911679, -0.4015541503274354, 0.34589288821378605, 0.05111779562664669, 0.3517730012481224, 0.008742777840117795, -0.18063517684863026, 0.04366817583091598, -0.4604068157336134, -0.504408428368126, 0.4736053234168019, -0.10039057044160615, 0.1682909950009492, 0.02696847468376804], [-0.2082765832691038, 0.15891942081416247, -0.49416938883090333, -0.3669538598533049, 0.09941717398240607, -0.07754783578177372, 0.4765659919206674, -0.37693919859809943, 0.08500377405546687, 0.22431864074213903, 0.052953356372157, -0.34605322387488924, 0.1406486341376745, -0.0925544350427452, -0.14958662413098456, 0.4552974798271729], [0.455226926512452, -0.15542657408554317, 0.076437584115165, 0.07674689187084544, 0.22078246946312496, 0.4080815677438865, -0.241819236041727, -0.2621525355599473, 0.10233700109884841, -0.2705861624627869, -0.3255152638759796, -0.3946752122366882, -0.4041485977283663, -0.0607660102970182, 0.05649363541224414, -0.1468294805726633], [-0.4450255323617734, 0.09402930068603954, 0.2629776518105085, 0.008704430249324342, 0.07592563126678491, 0.22300781830370572, 0.16294531716778032, 0.13331795608113153, 0.27663241957148466, 0.19195241735025548, 0.13572506230787307, 0.13383120642948326, -0.04158094006275177, 0.3725683195301306, 0.3702713542438417, -0.5603882994235885], [-0.35916083841676333, -0.17974248136970822, 0.30869913207933364, 0.12281330855186454, -0.19692865052827718, -0.3601801124970372, 0.14699964307707822, 0.21825440289995546, 0.4991913808452377, -0.06001925563446831, 0.1306161021940328, -0.27371612073002455, -0.4574421734342064, 0.007649941873342152, -0.06863979889330353, -0.2891414209731815], [-0.23257633708032202, 0.4167091320892075, 0.15333849271669087, -0.02776092139102244, 0.4073539726859669, 0.4910459678054192, 0.17170042050882559, -0.27060166506500816, -0.5723733210095737, 0.32151507095508625, -0.24490372932577847, -0.006394776711305921, 0.45305556474647907, -0.3640153929013159, -0.05460806950682505, 0.2276631907327973]], "biases": [0.023535099564090962, -0.021292151227396684, -0.13070568571771105, 0.010152053703367882, -0.0007866469349688646, -0.03390446976511553, 0.0037252375337359397, -0.003979120337954261, 0.06899253271762762, 0.08616567790457633, -0.01845527274742534, 0.027542732645437194, 0.0005269201156213528, -0.09043668872916974, 0.02730640000961698, -0.03318452288839644]}, {"weights": [[0.3638589528858278, -0.3889287147796934, -0.8098526278504536, -0.32136279273206564, -0.058123623148661215, 0.7024626136155939, -0.27747304732986444, 0.43502771490761494, -0.6434591784388646, 0.877580137331155, 0.8524815590543049, 0.31291536573570883, 0.11824567286188804, -0.4036071677689414, -0.5462619472345995, 0.9230439205334436], [-0.4840622868219219, -0.06620959831669397, 1.1979246978010203, 0.31093443830699463, 0.3037597245248862, -0.389561093619163, -0.2798013616164943, -0.3709960676917429, 0.6950292007752391, -0.21870537544224508, -0.19019547796175781, -0.5973702461600545, -0.11357427676959939, 0.6832639964904486, 0.2707387147648315, -0.15120194798880468]], "biases": [0.08087543073117677, -0.0808754307311767]}], "means": [14.036749450549458, 19.16942857142857, 91.30101098901098, 646.3925274725273, 0.09631446153846142, 0.10279531868131862, 0.08503131582417577, 0.04730564615384611, 0.1812586813186815, 0.0627919120879121, 0.401786593406593, 1.2163573626373632, 2.8367553846153863, 40.06503736263736, 0.0070851670329670395, 0.025134830769230766, 0.03110941230769228, 0.01168316043956044, 0.02060302857142859, 0.003765091208791205, 16.141734065934056, 25.496571428571446, 106.26301098901102, 868.4828571428568, 0.1320549010989011, 0.24874670329670345, 0.26143682637362625, 0.11198138241758247, 0.28951626373626377, 0.08382382417582417], "stds": [3.482944614829845, 4.32327039707403, 23.962108253343114, 348.7200196719216, 0.014074597415285696, 0.05227466020151787, 0.07760719057210037, 0.03739580346345016, 0.026902160671784917, 0.007270331890255717, 0.2819976924082182, 0.5468817212918659, 2.0752442354471734, 47.71185317257382, 0.003128152101114071, 0.018043669396800393, 0.031509885176132894, 0.006215489130237885, 0.008584389688909273, 0.002552797863127563, 4.794921370706414, 6.07870595168871, 33.25865780613842, 567.9594455153276, 0.022495429219275834, 0.15497206682336456, 0.20339719007536033, 0.06448048306596955, 0.06218735569244246, 0.018686174047688683]}