{"network": [{"weights": [[0.015509279368584936, -0.46250363880503204, -0.2382988170036268, -0.29177644717901546, 0.05776714040570712, 0.19383914850320488, 0.12499454955844523, -0.4516115818095353, -0.12643111015931527, -0.2593909251008625, -0.37080873115887003, 0.11390316909266199, -0.42234445273412136, -0.34328600000921233, 0.07989562312205127, 0.227400507600868, -0.22151776774708706, 0.06631429222394833, 0.19317267811365904, -0.18991546317296307, 0.04282271987690755, -0.12812404042094164, -0.25998813121903697, -0.41456474681618954, 0.09513502062448077, -0.11398227954963577, -0.5144423375760979, -0.4635051443215465, -0.12071475130091218, 0.0677559124581229], [-0.0542658544462585, -0.05543175538789979, -0.2303745655251686, 0.0530084594406665, -0.27035644205281234, 0.13349141852325935, -0.07044788968948731, -0.28301922393937573, 0.12067625157274184, 0.25497305761733896, -0.3322270689729205, -0.09726810976364525, -0.5009305970006382, -0.5123181953517343, -0.1532959693309218, 0.2664910715045187, -0.22355806694530386, -0.15760646710176954, 0.1386470711629793, 0.31130503556867894, -0.5123756729577815, -0.6278392332201324, -0.5214475161444324, -0.08893740184382429, -0.21661297143875138, 0.1298688203724748, -0.6002698642257543, -0.1756822225030421, -0.7883180911962377, -0.023669031060343803], [0.2148569275816304, -0.022984360198614873, -0.08839156138144867, -0.008686706211407587, 0.2251090267287746, 0.2502013061127981, -0.2929109435602848, -0.4695312116860587, -0.10379560960984033, -0.03889449114934471, -0.3635631654357213, 0.37194205765684957, 0.17008492091187533, -0.2660931320791037, 0.18605535258909425, 0.09246179014387153, 0.3462230609590855, 0.013316217290836893, -0.07128525130436042, -0.016656403031209775, -0.1489376131030257, -0.3837118267468508, -0.10792769460072478, 0.10242685859490827, -0.1788195611145438, -0.1740640324113888, 0.23782499371150767, -0.11663171911576926, -0.38916251817030156, -0.2738153537208933], [-0.14060487726801063, 0.22519448528619596, 0.34203096376033554, 0.09809968875265773, -0.24522147180028983, -0.15453064553896226, 0.5082460672059192, 0.19714864273273386, 0.3334399964282331, 0.1330317621143173, -0.14710473720542527, 0.0403850621535183, 0.25555539682808553, 0.20106439095598846, -0.18456847770637147, -0.1140298761023865, -0.317561101009209, -0.0923197780869897, -0.07480937179496562, 0.13005430513809424, 0.4969636198128543, 0.07022195311375116, 0.19249602410802072, -0.009659577169037696, 0.49304611814091115, 0.23189122993326164, 0.028383759845533613, 0.2610704855417769, 0.2901914715546582, -0.29292649035266405], [0.24006850976684505, 0.1880617169671831, 0.2459011978551847, 0.09239613142199857, -0.17511452046137999, -0.1608078977208073, -0.12647928061508082, 0.5111447615574756, 0.40049638857057784, 0.2419407032032365, 0.15999569410220463, -0.3634329632714503, 0.45941665804202947, 0.5247560926976734, -0.32864192620321536, -0.24394739209719546, -0.29105946533456883, 0.19021787601385357, 0.19006361882644288, -0.46095148751166676, 0.15788947205393322, 0.3558747849342412, -0.02977982349380475, 0.445500643451905, 0.2599995445693053, -0.17862669291464459, 0.3254552518530303, 0.3714259338141293, 0.16519391165909048, -0.06479028978628151], [0.5022035021693088, 0.26443191713284564, 0.09012779116348385, 0.18502537054022758, -0.061124333926444396, -0.2459574810560996, 0.2159027473995073, 0.36495767166743437, -0.15118575987809255, -0.22650441590352877, 0.1752273651107932, -0.043492708027692346, 0.15277292715207003, 0.6308181347522013, 0.28709567395271396, -0.5332736154856232, -0.06795842536318208, 0.19827648129376182, -0.33447684278910456, -0.4348368322817682, 0.6044555596891595, 0.35071220288630567, 0.226641683909025, 0.4969190380617679, 0.5367111623918465, -0.20993661961693877, 0.10925505386170141, 0.18490766717562823, 0.257750753688469, 0.03619686625258065], [0.30015440332439297, 0.23487796266460473, 0.48092712160356266, -0.1459921592360337, 0.10136979719210135, -0.10421891910314147, 0.4921070461393738, 0.0709226939924872, -0.10144053748319438, -0.09505367819592038, 0.14086738572012347, -0.30592014746286184, -0.06072534244985634, 0.4705657880802943, -0.00361346319375714, 0.08793136170030989, 0.03699044761467646, -0.28477582779356747, 0.3483970177061978, 0.07358067720817715, 0.5739846581142956, 0.5781153883678819, 0.45922213838286696, -0.016704339718033864, 0.2858277275323973, -0.15827262693321134, 0.20198852822170527, -0.0519587153542204, 0.2593328797194929, 0.38329881484170863], [-0.11850921990037669, 0.245263323726734, 0.01606903534295636, 0.005274772586267334, 0.41507270269208174, 0.3546857501623858, 0.16200135753687325, 0.27599097602394695, -0.18314031528713728, -0.1584326762632319, 0.4443731768075296, -0.004063296296268661, 0.08928624582048357, 0.26503559683715855, -0.2612107022326498, -0.013268989557069856, 0.03985957148883976, 0.2868897637851039, -0.18228307190159854, 0.2709193075813899, -0.20034412467250834, -0.11729482066707561, 0.15535115894161644, 0.23005507373238365, -0.03369740903380693, -0.2669937269769418, 0.41383871671308947, -0.0676360314322282, 0.2750156830952645, 0.09925274950793518], [0.12864971592549265, 0.16615580286661766, 0.1932030280946642, 0.5299892324467621, -0.08865996707741812, 0.0934489156637907, 0.11635040944496647, 0.223516657136462, 0.2174208743009842, -0.24293248713938043, 0.13025208057587803, -0.10969151194820112, -0.16225870270134976, 0.2173048241162434, 0.3297983741685254, 0.07115870446757244, -0.28297270295626936, -0.2722521022639174, -0.11617195392368283, 0.09101128323247688, 0.6228786167645731, 0.6004337217711759, 0.2049608050737481, 0.10116787133185468, 0.5696709791623333, 0.14078280554287176, 0.4308800978583357, 0.6456256307087348, 0.5984822797391897, -0.3317789819866849], [0.04543378310905062, -0.40329537193274956, -0.04640790139340893, 0.12203191857313236, -0.34173580767493766, -0.13645538890218675, -0.4704587730016562, -0.1670029538786986, -0.08399968622725709, 0.27098275424836366, -0.22277303442854027, -0.10503318441248222, -0.14863729426138733, -0.4479413811736983, -0.041099886803075934, 0.5509061961275584, 0.24505997753226316, -0.3171059210580823, 0.10806378231796343, 0.0751294817229325, -0.6513614843195559, -0.20451221579232043, -0.1428453092325127, -0.4536639851181684, -0.03484113615574352, 0.08307113376715648, -0.31967781213859564, -0.5363946661821507, -0.5422811096270044, 0.32421035331649445], [0.30658128445710814, 0.08647660259030833, 0.2523349489801838, 0.087079878826293, -0.19132754549752023, -0.3363309582280488, -0.051435965502748496, 0.36748343416517953, 0.2606023011758415, 0.2153962022725611, 0.3902606459479285, -0.28984457924883683, -0.13273815001805042, -0.20963601479506289, 0.19093716917442938, 0.11867161924707428, -0.08720201611202293, 0.04032329916308019, -0.23518730660007495, 0.1790916207493562, 0.34493168844786226, 0.48807031556326214, 0.2859800957015409, 0.3590065589428723, -0.20749982542004808, 0.14158780780851138, -0.0017531447098983112, 0.3923376572496592, 0.40448753599463366, 0.2556438118352388], [0.00470814097396651, -0.3706235956570096, -0.0017590507185330042, -0.5056757192134266, 0.0862206918291041, 0.2630749505186712, -0.4873812655730399, -0.07802443826201007, -0.08106501990915431, -0.021109572038027317, -0.10221250486760283, -0.06745822159442874, -0.5399870721965198, -0.468040626534911, -0.15489406505561015, 0.4500582607193977, 0.27563041490763057, -0.240792609450191, 0.16760694816732027, 0.1104596579912478, 0.02054257273498676, -0.34586789271229607, 0.03407297315104061, -0.5850621255467918, 0.03910718478406352, -0.2822151824108418, -0.015589321751322544, -0.4786221711783684, -0.6155266425164219, -0.06974277861367151], [0.06271990516778783, -0.23317681493101194, -0.018400828192825496, -0.0974969414263265, -0.13811554442081675, 0.0896058384544483, -0.28364780488277286, 0.027722772934015302, -0.38359753513346845, 0.37933867996125153, -0.1471305979733332, 0.21597122135839136, 0.05977607694525871, -0.009388683833601408, -0.08205913508008444, -0.1788894803781918, 0.12644280883906842, -0.1376851192389813, -0.11176119344669205, 0.3613844843823321, 0.0026765531179283536, -0.31934287323744187, -0.26995377948590504, -0.21400721493121086, -0.1701372290937846, -0.13717947714115494, -0.396980388777236, -0.1712329225174616, 0.1312951995770281, 0.13883011678412616], [-0.026874654110557446, -0.25904096753249434, -0.43092326798893943, -0.30322771215511785, -0.42086421375776123, 0.09025557031740049, -0.31082324149684326, -0.25507438698367774, 0.14612600908755696, 0.3368293692827012, -0.6187327295366951, -0.09572555978728926, -0.40240390730311176, -0.14438825328076613, 0.09174315374546876, 0.20955499657821353, -0.2915245270374443, -0.05342441604354859, 0.1795892334352278, 0.2703799822666214, -0.23045240728851435, -0.3137512032666809, -0.2571346132314805, -0.6500396219125819, -0.4601188780013499, -0.1252956408012433, -0.45076946290073383, -0.24028778031584608, -0.10479863676862934, -0.06609516015409923], [-0.1942813521919077, -0.0010708865226774444, -0.34885821807032347, 0.012608785610446508, -0.05950038204374418, -0.21609445736864152, -0.005928514745236494, -0.4963653044130444, 0.14395768305870082, 0.25141332710021724, -0.41512735233543263, -0.028279619480642, -0.3252240825195263, 0.21967670430161101, 0.03509286838729862, -0.269026092920391, -0.1847005625516483, 0.22567610951283584, -0.02268882101087661, 0.29229466692916245, -0.05010522351977791, 0.1904020915037704, -0.0860906047868198, 0.16654190216459566, 0.17938226187343925, 0.028920177987137453, 0.022444697397902436, -0.14309646134496887, 0.07660027828547064, 0.01766838406283487], [0.38436210960834166, 0.2571525029680339, 0.07336042649898422, -0.0605216771493749, -0.09932870650135732, 0.06536661315933932, 0.3337109973147798, 0.16806775537621244, 0.10590573463457291, -0.21986299267317108, -0.14323867379589048, -0.23647494468069236, -0.06535289246939815, 0.011362017899941543, 0.041365606782006605, -0.40066883021765226, -0.19106475102560797, 0.10813660139296498, 0.10534492149556554, -0.4195497466447867, 0.11089920117211392, 0.22279855972243537, 0.09149083336644766, -0.030738598736963114, 0.13658356550558884, 0.2751489834261431, 0.21424851229797598, 0.27440799953722106, 0.39782764101399354, 0.18927910528593797]], "biases": [0.011212238479360778, 0.10019239480150163, 0.030295198777159534, -0.11350231669517533, -0.09405692723555747, -0.18647066994184716, -0.06075012619994744, -0.06449426128842373, -0.22636097244698283, 0.06778078651557598, -0.07162097796744611, 0.008033006971920293, -0.0009235186218051746, 0.17752942390669782, -0.014544614526081821, -0.12757327468795115]}, {"weights": [[-0.8027442124562492, -1.2328632467696812, -0.3890811666307118, 0.5820135507932056, 1.009668566221043, 1.0637964836735732, 0.3528044013633822, 0.5896279264273138, 0.7648704778784262, -0.7145068840968767, 0.3826197644560744, -0.8025807309914785, -0.48612767692076014, -1.0792332111709693, -0.14355591114188088, 0.5865848183093482], [-0.06618705799393021, -0.28872869531969836, -0.02231336440271222, -0.4020880582605308, 0.07573332554634063, -0.5271332332253331, -0.1407415468200171, 0.031213083407818632, -0.5179410742232448, 0.18094991991279702, -0.39175597246982485, 0.0034941037432594684, -0.4331143307564934, -0.08323971910482533, -0.2750403071538749, -0.20235644988860507], [0.26611375590876457, -0.07236553176401381, 0.23227241088955022, 0.20501158183356671, -0.4070264771808385, -0.5955977558756522, -0.6222358144214786, -0.08309445678836617, 0.33542933978678663, -0.11746841723057425, 0.02285978773298097, 0.3172711036742789, 0.14047552438306393, 0.276664736440909, 0.4113728350652242, -0.4362953646587121], [-0.5362215872554117, -0.4296659148857442, -0.4144946666124578, 0.21128223109822117, 0.12715199385083925, -0.21191361929364805, 0.24837992626841915, 0.30669926421713906, -0.2662856264742538, 0.027631310287551312, 0.2899760132615488, -0.45875467252082747, 0.2749993016602365, 0.399439625743314, -0.41694552766232784, -0.429398736824021], [0.1797843202714727, 0.5888763133254015, 0.5559156534531499, -0.40530331249331747, -0.259597927933489, -0.8774686987282709, -0.16213288574040852, -0.1748240467286377, -0.9014219834507056, 0.7006561051714963, -0.11081112679322652, 0.3969306884624646, -0.17573066689324407, 0.8366749106737051, 0.27440508168739103, -0.4726973066997395], [0.21073852467844575, 0.15100853664464237, 0.03324144851946971, -0.49085924857103597, -0.10732810875547136, -0.09395155920630617, -0.7455335366655914, 0.13901819869387688, -0.34948074853645533, 0.6436084539882827, -0.2717731416892076, 0.11939173738496821, 0.36366341025223314, 0.734514255156483, -0.2699588219189826, -0.018771761657152736], [0.2165028183570289, 0.10461897301326802, -0.07753610989057937, 0.05321671174283653, -0.4731037045366449, 0.16062274028116036, 0.15549976216395714, -0.5966260989003774, 0.12388704344571082, -0.09112796679160115, -0.334116380685331, 0.16979751700565573, -0.05651541996847681, -0.3250098348822455, 0.31408017822110984, -0.4772906426085233], [0.10479763480285992, 0.7234296774421399, -0.03381031854585596, 0.05983063474976253, -0.2882737634215847, -0.6702831716604577, -0.8415431494658923, 0.13943205705540043, -0.9246488827982049, 0.6763712927003681, -0.48610439577175013, 0.5712078793996395, 0.4089019321083753, 0.5286736501429643, -0.008846865537354281, -0.0392382441992686]], "biases": [-0.10869591383009033, -0.01022592369100397, -0.1333814913034431, -0.0075782505763465945, -0.0729854721246824, -0.1658185651109377, -0.08842375753570758, -0.058795675845124046]}, {"weights": [[-2.757919417831408, -0.1897200585707517, 0.597798938744613, -0.6421291880593022, 1.0834973244201251, 0.3547628311556765, -0.05004406276048711, 0.826810706521192], [2.5084819196463615, -0.5037179384242942, 0.013577969757852316, -0.01298988438568739, -1.3422757237079983, -0.9838648801781539, -0.37829825222540286, -1.5316029641257578]], "biases": [-0.3360503804818579, 0.3360503804818581]}], "means": [14.036749450549458, 19.16942857142857, 91.30101098901098, 646.3925274725273, 0.09631446153846142, 0.10279531868131862, 0.08503131582417577, 0.04730564615384611, 0.1812586813186815, 0.0627919120879121, 0.401786593406593, 1.2163573626373632, 2.8367553846153863, 40.06503736263736, 0.0070851670329670395, 0.025134830769230766, 0.03110941230769228, 0.01168316043956044, 0.02060302857142859, 0.003765091208791205, 16.141734065934056, 25.496571428571446, 106.26301098901102, 868.4828571428568, 0.1320549010989011, 0.24874670329670345, 0.26143682637362625, 0.11198138241758247, 0.28951626373626377, 0.08382382417582417], "stds": [3.482944614829845, 4.32327039707403, 23.962108253343114, 348.7200196719216, 0.014074597415285696, 0.05227466020151787, 0.07760719057210037, 0.03739580346345016, 0.026902160671784917, 0.007270331890255717, 0.2819976924082182, 0.5468817212918659, 2.0752442354471734, 47.71185317257382, 0.003128152101114071, 0.018043669396800393, 0.031509885176132894, 0.006215489130237885, 0.008584389688909273, 0.002552797863127563, 4.794921370706414, 6.07870595168871, 33.25865780613842, 567.9594455153276, 0.022495429219275834, 0.15497206682336456, 0.20339719007536033, 0.06448048306596955, 0.06218735569244246, 0.018686174047688683]}