{"network": [{"weights": [[-0.1353478175624018, -0.6280221923251961, -0.39435310383247413, -0.4937156721205712, -0.04491746103261265, 0.3243792356465482, -0.11992358789650988, -0.7172935719275867, -0.12812766139581486, -0.1601436067370246, -0.7011395372409109, 0.38059488002787095, -0.6018530645177217, -0.61069772520166, -0.2719412783502204, 0.44771389965050523, -0.37941039020450323, -0.042463528062635036, 0.24214166533127185, -0.13099320654832647, -0.2475423515261544, -0.5596387384917952, -0.5058733819132564, -0.7444282608683409, -0.1366844849545341, -0.1431598181477897, -0.9149058405670127, -0.7329264627322558, -0.6218768313212389, 0.06319034740523047], [-0.010681827371882764, 0.07806544699059655, -0.2003915988769707, 0.10237311898640689, -0.19033042007812165, 0.16433411188212338, -0.03460884441208093, -0.2336379203166034, 0.24723908371299458, 0.2149620479530715, -0.2793186518598926, -0.052055744091773964, -0.4722803558691718, -0.5000825611384326, -0.18895245735437075, 0.21515158991048747, -0.3322544975944674, -0.17897858605025696, 0.25409288096930915, 0.20565151443681892, -0.520014154634122, -0.6068767216024323, -0.518428505640188, -0.05819792447685418, -0.06686501925887871, 0.11204244393772692, -0.6535448763458075, -0.13458012421318466, -0.7241609656950652, -0.07321408319891341], [0.5359677283158003, 0.2325942325745756, 0.17974081251832466, 0.308295005831294, 0.33735403907891903, 0.1719288809901117, -0.07372258984921803, -0.175010596924308, -0.1540405482798992, -0.2671337158514532, 0.04086938486006831, 0.3064285622619221, 0.4638403035151925, 0.06193323198404036, 0.10179294615088774, -0.2657544839406156, 0.2301932350853065, -0.0872219932398931, -0.31276653701848345, -0.37499756856875144, 0.30827985252074674, 0.1386375375931699, 0.2817013065586754, 0.5693829439291662, 0.04641359762068257, -0.17632574436793708, 0.5898282310817958, 0.1872344324215772, -0.082836780203791, -0.31904452058044286], [-0.053788384020873846, 0.35582510341510604, 0.4624042548342521, 0.23726514215517627, -0.29237753557323015, -0.26726768290886466, 0.7329696858520753, 0.37734001538974277, 0.3409203605221864, 0.04063065166853994, 0.03426860210849952, -0.19633765783674448, 0.3745143227823352, 0.40459465886351625, -0.21395453678646303, -0.33597314626740216, -0.37111062416460106, -0.2008915724211471, -0.14678670080885223, -0.04658039504795043, 0.7984159204103424, 0.4787342273954331, 0.40527109361722585, 0.2521845411190523, 0.6627790386496194, 0.29614841851787277, 0.32307758397148945, 0.4761591917541979, 0.6111267760152029, -0.29302810973004534], [0.3234635353523545, 0.30181400744380044, 0.311378612619879, 0.19289861857361945, -0.2013923622758453, -0.26294787409580295, 0.03667914811762061, 0.7004507245262361, 0.43644458517862417, 0.20713673728417123, 0.41577131552960545, -0.5317674969465798, 0.6074733303402382, 0.7724872655067792, -0.4525908209346058, -0.431817044709887, -0.3217872047681275, 0.04064445205058536, 0.04667288046414518, -0.6226990966388383, 0.3951279558367476, 0.8514324085729881, 0.11909713613744374, 0.7265641076956625, 0.4372758534342735, -0.06618263301096505, 0.7020455919824129, 0.5642393406960173, 0.4752844388545891, 0.05798032148975208], [0.5507606562891976, 0.2367862315721776, 0.10009545705220942, 0.1999788139708946, -0.11005379255296795, -0.17089535178147444, 0.25365822107223907, 0.4050932194311866, -0.11681375835775534, -0.15469431711402848, 0.1185939669229044, -0.04477047460491142, 0.10308636898166439, 0.6568204299895912, 0.3304074175951558, -0.4460616996050544, -0.02016144410391639, 0.24977945036011298, -0.264749892422758, -0.34246996909744054, 0.6687572594647451, 0.43050111010134384, 0.2447996703136828, 0.5502825450147145, 0.481864054256359, -0.09532516445527028, 0.1623413842927287, 0.2432209367725907, 0.3793950673188691, 0.15226161679083033], [-0.05201028871673332, -0.147629581128073, 0.1681202822125983, -0.5591394090353693, -0.16841268219056454, -0.06834386902607746, 0.10285936082288269, -0.4688146050605314, -0.12933535705882507, 0.13154986384383724, -0.41954585232955066, -0.10838931567780746, -0.4238418441290801, 0.05434392066767496, -0.300123061943487, 0.4440229300895156, 0.1305313519760531, -0.45176592557189127, 0.47394820693753353, 0.4436836991568999, 0.01484400728376997, -0.1458686083825145, -0.01801668066474989, -0.6021785373768656, -0.14082525930065243, -0.2556423503113925, -0.31072278018992866, -0.589733575775363, -0.36699385189505307, 0.40656657284680087], [-0.27502147166923985, 0.14854757930047502, -0.12004805879168565, -0.1527465542911711, 0.30985945991129815, 0.37342647073199736, -0.08800670228366027, 0.051234583530046285, -0.2696207910207772, -0.1395649866066793, 0.27787988058468904, 0.1376366260719615, -0.014313574838827774, 0.10960770696115785, -0.5057820081716644, 0.05023072440966425, -0.089604170177596, 0.1959320402717963, -0.25895447896522306, 0.3316814846919122, -0.46972278765769143, -0.41879875145306467, -0.03902726781094539, 0.010112151454211404, -0.30423292232531685, -0.3528898343503901, 0.15641650310347335, -0.324602312883656, -0.05992008833241855, 0.055641742647108305]], "biases": [0.2632001247505139, 0.1683990923961015, -0.173130385094969, -0.45875972270838794, -0.4470869007118439, -0.2468149540946594, 0.037094683405211534, 0.017777884543213888]}, {"weights": [[-0.31883309385605146, -0.056285352439044214, 0.1373053696994265, 0.6904822290279361, -0.16353126031678128, 0.4032185094184294, -0.45454310031697376, -0.15807733463821344], [0.49009190710995354, -0.09260063457797248, -0.5017953540906547, -0.03470227636354283, -0.933995455149611, -0.36618292292825716, 0.7400495566433646, 0.5582862796647667], [-1.3601054665157448, -0.8473124957666528, 0.065630573311028, 1.0436203562840232, 1.150494619608903, 0.9292721898190871, -0.594228968057874, -0.5477257583808655], [0.5293863489300686, 0.28911975729485384, -0.0560081152112717, 0.37488438442824396, -0.07207170375534333, -0.8121188403570642, 0.4333836634827967, -0.30630033956515956], [0.9958822059307194, 0.9967645081739834, -0.7630631566691375, -0.9242572453587977, -1.0913458646795973, -0.3318675256710089, 0.15225742856372004, 0.25508053857280755], [0.7024368611953018, -0.16192872536774672, -0.18390672626293605, -0.7178229078572089, -0.5408575017147402, 0.11648720928618009, 0.6247874655490443, -0.5444809338421573], [0.7780211215239633, 0.15008254014400213, -1.0245394639891163, -0.2694720374500296, -0.6046991020135349, -0.7517775655819996, 0.7141363721970639, 0.08919301909201828], [-1.045118708113266, -1.1215162440771502, -0.11172194772163055, 1.0192261290332496, 1.2344615089788902, 0.5467948553700581, -0.09678816502732467, -0.028926387499294468]], "biases": [-0.03814340554736092, -0.11033064177323205, -0.18520023753492046, -0.12631064777042444, 0.22543996998954835, -0.06869801561750112, 0.13820364248755143, -0.24923351849771785]}, {"weights": [[-0.9971907676404537, 0.06227696233844485, -1.7988679541704427, 0.8960993545805709, 1.5884064741956827, 1.0247124830490768, 1.242845478708776, -1.5628811603915527], [0.06399314498690233, -1.254785357397552, 1.935777283080597, 0.3170990305255121, -1.2746952960903783, -0.2789864381028978, -1.15999775630215, 1.7797024707705078]], "biases": [-0.1545222414497244, 0.15452224144972493]}], "means": [14.036749450549458, 19.16942857142857, 91.30101098901098, 646.3925274725273, 0.09631446153846142, 0.10279531868131862, 0.08503131582417577, 0.04730564615384611, 0.1812586813186815, 0.0627919120879121, 0.401786593406593, 1.2163573626373632, 2.8367553846153863, 40.06503736263736, 0.0070851670329670395, 0.025134830769230766, 0.03110941230769228, 0.01168316043956044, 0.02060302857142859, 0.003765091208791205, 16.141734065934056, 25.496571428571446, 106.26301098901102, 868.4828571428568, 0.1320549010989011, 0.24874670329670345, 0.26143682637362625, 0.11198138241758247, 0.28951626373626377, 0.08382382417582417], "stds": [3.482944614829845, 4.32327039707403, 23.962108253343114, 348.7200196719216, 0.014074597415285696, 0.05227466020151787, 0.07760719057210037, 0.03739580346345016, 0.026902160671784917, 0.007270331890255717, 0.2819976924082182, 0.5468817212918659, 2.0752442354471734, 47.71185317257382, 0.003128152101114071, 0.018043669396800393, 0.031509885176132894, 0.006215489130237885, 0.008584389688909273, 0.002552797863127563, 4.794921370706414, 6.07870595168871, 33.25865780613842, 567.9594455153276, 0.022495429219275834, 0.15497206682336456, 0.20339719007536033, 0.06448048306596955, 0.06218735569244246, 0.018686174047688683]}