{"network": [{"weights": [[0.4068432432501589, -0.013583681108873992, 0.16088376526169765, 0.021896480960878283, -0.013455967935885679, 0.4648316139815809, 0.13674024966181442, -0.5036712899092463, 0.014267684350173943, -0.7470616730114336, -0.8697811311131532, 0.26938453801594187, -0.6572814093903867, -0.6293828644322154, 0.40128037178527404, 0.7361066858710487, 0.08851526536772458, 0.19342229520229898, 0.6984284358286527, 0.12067688148862211, -0.011361641997478142, -0.21421971668842596, -0.16051664452558911, -0.502823557212821, 0.10766105664186672, 0.03033553937121663, -0.6050526867570082, -0.43109349135215297, -0.05943415394138255, -0.030334282255430188], [0.38812402630686504, 0.385229246600883, 0.2107639432545283, 0.445368856095008, -0.22080241658924785, 0.2571772563393255, -0.02479072705945434, -0.17018438368952085, 0.33086885680848266, -0.289119768526274, -0.5407913522488154, -0.13896504950813415, -0.5571053102623826, -0.569489837091088, -0.010824713876616791, 0.2596419682294768, -0.3494359429357558, -0.2510799547346185, 0.4332388984694327, 0.25635829721807574, -0.31648045126497726, -0.4193160504291709, -0.23668290970838304, 0.07608908869799805, -0.0156120052799774, 0.1781611985472494, -0.6470128470088098, -0.00018026261029933891, -0.4133886453101954, -0.1728734861708674], [0.44716122313561896, 0.4367609709953379, 0.10087945479934769, 0.3533518455325195, -0.24842218168009886, -0.3885236994142708, 0.06884935415712169, -0.330948663402227, -0.6877561170687106, -0.2843978914959408, 0.6309994396182093, -0.028462861651164694, 0.8286050487461939, 0.4751812018500616, 0.16188065958210912, -0.693109502574714, 0.3560903771945377, -0.313668453181405, -0.6326554699928084, -0.7824874080209125, 0.5896735564633717, 0.13201966741212165, 0.4326931529894811, 0.8770287939440253, -0.24066194470900631, -0.7948431673277413, 0.4632621607943449, -0.25286468196344153, -0.4594944420502675, -0.7642892865999829], [-0.3221664777418362, 0.11466640483429351, 0.15511023123596376, -0.06389449336999914, -0.31502000865511404, -0.280880894370276, 0.5082602455549126, 0.19547650005646636, 0.33516898331675066, 0.2824393308397473, 0.04784719943290995, -0.042565856297833694, 0.3344809265318704, 0.29505365789388693, -0.3489814532917345, -0.2557572303195262, -0.3734213935194607, -0.11342346257963698, -0.18401791159994968, 0.001162610227150669, 0.48913219871248476, 0.1584678211187941, 0.11370987399166191, -0.011586592120286286, 0.35820062848577294, 0.2109771045686449, 0.10665844062886193, 0.2236528916363453, 0.2944086899597048, -0.2744282762937978], [0.07807073591199938, -0.05170039470708434, 0.11161890209792426, -0.1181385166512688, -0.2817367243844638, 0.01678552252483212, -0.6685226513270875, -0.012273752682374694, 0.21540837098827761, 0.20605288138811606, -0.7128557019486266, 0.028095393235107666, -0.07334214519139311, -0.09053776500924944, -0.15856672231110647, 0.3844076060817912, -0.38178597260386354, 0.0639786879242994, 0.2562628930766004, 0.059366047509858424, -0.4017688485214462, -0.31868251994180047, -0.4221837209471035, -0.10984098533564042, -0.09899846802590681, -0.10530073290773861, -0.37694557009085183, -0.058556019201776895, -0.5431637908931005, -0.06569617885823215], [0.5088320059210651, 0.19768128211318767, 0.12702760967786195, 0.10111623519887229, -0.680478905530484, 0.027474960197250927, -0.5074386059732868, -0.4303081138296807, -0.03809655735090475, -0.4931828848710528, -1.3084055669101933, -0.19680593385181697, -0.8106710023667288, -0.28051713888408514, -0.22700221458530948, 0.14621015801725956, -0.48007710846469687, -0.6159057326155281, -0.07031995570752751, -0.014024475741223747, 0.1528180919367584, -0.10473024628284999, -0.021769154937922888, 0.015028556770446391, -0.09341252870078183, 0.18374186700634124, -0.6322794185879969, -0.228804657578119, 0.1245748670545769, 0.12942397593262384], [0.43071324373051967, 0.32006231927252415, 0.6220219738883884, -0.08295101237002159, -0.20723154006516117, 0.11229910798313816, 0.17179125284301922, -0.2599352808271715, -0.10477357979027309, -0.396580512259072, -0.44970341793561225, 0.26359001504049473, -0.3407651694730296, 0.07643743255133256, 0.34086163619281334, 0.9271650961098681, 0.2481870551755629, -0.12131807736287148, 0.8743243424538539, 0.653281477298032, 0.21563034315752597, 0.10909682051869488, 0.24492909906121782, -0.382320654901648, -0.28592957110525, -0.13408386260154037, -0.37218014364219, -0.42668278734492154, -0.305864788327214, 0.18337362992554546], [-0.29855980803333937, 0.07975140912707211, -0.162435963141156, -0.15196985181388667, 0.39763080654168587, 0.3156407071647446, 0.13644583344419817, 0.22325399017229022, -0.24970108526571513, 0.08462843394924685, 0.5848425601547069, 0.08274768695386356, 0.16061334570159988, 0.31757994081127955, -0.33367438377395464, 0.006686071931491402, 0.0730530888193309, 0.3517728643901904, -0.3106138533745589, 0.3197749117759863, -0.28535043114934816, -0.19638552334362788, 0.03747372210717785, 0.1624295859022654, -0.13895575659624837, -0.2744351262527386, 0.4191730788940517, -0.16508975852760516, 0.11048054878635148, 0.1896781949812933], [0.040998392770118776, 0.13297146641071564, 0.09193133235159882, 0.4901744493203023, -0.5384471906109995, -0.16668481711977912, 0.4495394988592818, 0.37593253197882126, 0.46211464492147475, -0.3574458908929364, 0.2613528767513192, -1.127880898765276, -0.23916379180745853, 0.41334911476512337, 0.8912553994918503, -0.20997742767181507, -0.2760123550683878, -0.4746821984376497, -0.15156384209471482, -0.18563144080234154, 0.9739373075754907, 1.1367183981594566, 0.39085597873769606, 0.45316065658404536, 0.5046822307637375, 0.10100870069003093, 0.8092229802676423, 0.6804689639699046, 1.0579289655013753, -0.5232744598736694], [0.45207410125321856, -0.12038468649339931, 0.35584588401578593, 0.46037917589789423, -0.2066612636658674, 0.11872180762048903, -0.5309725513362374, -0.163430984514627, 0.059877726123879337, -0.19243674180211764, -0.5895831920956855, 0.20929924616880094, -0.34255326495190186, -0.6399362820451024, 0.20350507073770444, 1.0258277763604533, 0.2910367631855361, -0.394601744223378, 0.5542729428993705, 0.293029492075378, -0.6347193208704545, -0.21330282082077265, -0.006218085101482174, -0.46358856057377174, 0.12563508057826686, 0.2869873270533981, -0.4766333695538858, -0.4736363381970376, -0.3639843289922525, 0.2557361670697776], [0.34454150098096326, 0.3060921370586018, 0.27792828247724055, 0.15072745425105977, -0.5244757173536471, -0.5678731289652109, 0.3726042718674676, 0.696622224594203, 0.6837232322633763, -0.030602912519754034, 0.8104563012820715, -1.0757425860880363, 0.050893237330105395, 0.15545835405433292, 0.6805789028747984, -0.25979357449073226, -0.23612900571025489, -0.03731286919959041, -0.276708710855724, -0.10711256828777903, 0.8398807357818009, 1.434352393173629, 0.6043183202542496, 0.8270414589059945, -0.2299461338713248, 0.27592380754702456, 0.5171381538090869, 0.6163386369843558, 1.048026974386033, 0.2503736600399491], [0.29573986618332765, 0.06761749170888633, 0.26317629811743143, -0.1767093644718443, 0.11822469574594044, 0.1503703488153438, 0.16027898934515042, 0.5046385123736716, 0.12759823827601416, -0.13945170701726797, 0.5789468719469552, -0.570102505568845, -0.16484559745805089, 0.09426679257823736, 0.09637557881552218, 0.04554590097873522, 0.483344842903182, -0.0792795071076132, 0.2086622353800264, -0.28347755447004386, 0.6985765531994302, 0.6111487384003619, 0.5444375598696765, 0.07460085640860682, 0.436325090225458, -0.241442943605675, 0.7843972781644769, 0.01513819183537762, 0.2333276727219088, -0.06264574293546686], [-0.02736084856860089, -0.29475838255581455, -0.09230794721254186, -0.2075246399062005, 0.05143808216181559, 0.16081541842121852, -0.5623173805171242, -0.26320093490757707, -0.539740829927226, 0.3200373205800977, -0.5448412654838779, 0.8714854007853777, -0.151181191265536, -0.3785313777352911, -0.279162796821601, 0.06981258651758572, 0.35763834372119535, -0.019016994534771636, -0.054994406192685925, 0.5515878279001364, -0.45000647644548786, -0.8660410280253296, -0.5645604479445591, -0.6474507857342865, -0.2237254581589544, -0.22683097678768407, -0.735084430807921, -0.32389522519534875, -0.38182994330515574, 0.0940717665849342], [0.16383668674725688, 0.3215404406574711, -0.28734548951130157, 0.041992426644984274, -0.7127868093332501, -0.6646785606946495, 0.2613880298813924, 0.05241516808289312, -0.32152826429847403, 0.09772264168923671, 0.9257735539617963, -0.37394765450362094, 0.7058618986914491, 0.92430282378427, 0.30450613063332055, -0.6819581158346161, -0.013484818424092637, 0.07534070081445368, -0.2382062387746141, -0.3556631645273253, 0.5714575742886407, 0.3704965184082594, 0.3257187556144751, 0.21271289209804486, -0.4468247954437256, -0.8695969972739533, -0.022714342651737142, -0.2643429378380471, 0.0011374371597475264, -0.6687670837983557], [0.11180006006066645, 0.13454230946098478, -0.06476913801594592, 0.33605562264141076, -0.27716902073162997, -0.2850930077296575, 0.4815999023060089, 0.016099985774377823, 0.4367491983010908, 0.026500347862182118, 0.12515114567519153, -0.6682965933717142, -0.015668506395525156, 0.7143938232665802, 0.16449872697508383, -0.523306519929874, -0.3361435235839672, 0.1732690760822932, 0.09321531476285624, -0.09976272437049506, 0.6388714299168157, 0.90887834755435, 0.441026959338165, 0.8202374295940787, 0.2645106069821403, 0.1666107906451567, 0.5555157664741048, 0.2140003573843203, 0.8049108137993413, -0.09931113331203563], [0.4584845911806445, 0.37479504840150996, 0.16865441313687501, -0.04405679859231205, -0.806469294629137, 0.07246548090567148, -0.46342872444655614, -0.8514040475965522, -0.14080843374980745, -0.7002623346521655, -1.516479059577046, -0.652099912307441, -0.854130400872335, -0.8298870399015225, -0.3878397844127746, 0.21163898486890728, -0.490334030290708, -0.9045260942467994, 0.16819365764523908, 0.13450808679996681, -0.2846105149885535, -0.3340920416909999, -0.07564272665517933, -0.4320019354327634, -0.5760764228817696, 0.4507557892977174, -0.6553560753754749, -0.4516097576031242, -0.045497352608637805, 0.06476595547349011]], "biases": [0.24287812191181035, 0.09020229799108463, -0.761673746513668, -0.10688657005087794, 0.20990272630204837, 0.060148145900117356, 0.17423614918315034, -0.09841890473420911, -0.7306583705615342, 0.16731115194662122, -0.43402054856608985, -0.3353229149831785, 0.4192726349438921, -0.6842952225781166, -0.40737518064874717, 0.020703020063683863]}, {"weights": [[0.31657584063302135, -0.14129856501830865, -0.6517229037046319, 0.07693279751224079, 0.4402741779778412, 0.7341022551850521, 0.3075786966537188, 0.045662926290310345, -0.46081429585576317, 0.5292624677522338, -0.7836561265592903, -0.46978925417077894, 0.2990645103425962, -0.893644829308689, -0.5231868249483442, 0.7024620081326204], [-0.19980070707304312, -0.3430281732238596, 0.1354974241102292, -0.27034553504923814, 0.10379411231049254, -0.4823081024322739, -0.1587252212246664, 0.13951561593327877, -0.2737302121289845, 0.015055136516373318, -0.14666155832761876, 0.040331533188839946, -0.45399773715057884, 0.027358155580742366, -0.14814418897547557, -0.26553741659276575], [-0.6252176233816943, -0.6213311819305125, 1.3294650651595554, 0.49488375303852056, -0.39049113800519325, -1.0134443311342571, -1.0758567630376288, 0.30166565261154393, 1.398474246160073, -0.9639501203398876, 1.2196952901776248, 0.6590304242728624, -0.5271387181837088, 1.318871972758439, 1.1193439947058381, -1.3506375162307465], [-0.6871751350833677, -0.44920664584317693, 0.16466822569933795, 0.30740013638926156, 0.024092336812595993, -0.42853472854346397, -0.07018350234767351, 0.42998780114204277, 0.16871692054911733, -0.19602211418579837, 0.7126892876261641, -0.10290511066145028, 0.05610994473049738, 0.8433420084324653, 0.01256734151723501, -0.7409416389546961], [-0.3825323881403416, -0.027661135636710285, 0.6796046112496903, -0.04993833350324581, 0.11816763816862766, -0.5622308048379729, -0.07842657508112932, 0.2154223926653574, -0.12575481261385718, 0.00951016307036213, 0.533898963540979, 0.14111052436648477, -0.49781959329669756, 0.7038298703181931, 0.4039481380946338, -0.4266216941302888], [0.3316994125333024, 0.08704737113868649, -0.6772440910034416, -0.4333029995417676, 0.401252258080251, 0.5679265974434792, -0.0630501516522381, 0.19209089500181067, -0.5974645875666139, 0.7148074624887468, -0.605085799726849, -0.4834787224832035, 0.5853491468442578, -0.22047834108010236, -0.7671051342663857, 0.8142642232082161], [0.02181286186213259, -0.03248020083164384, 0.051541044150006605, 0.2319046725772273, -0.18166495070009725, 0.29600671841866094, 0.25247944962426117, -0.30029029415188074, 0.40602106206761784, -0.23962682231185045, 0.04249333699572624, 0.12299827173953859, -0.10563257367914006, -0.28555639204966843, 0.36690755666106695, -0.30785395726918335], [0.1361015675124187, 0.4802849705532074, -0.6807670025921182, 0.12489144265179095, 0.28173793166931965, 0.10816530494342354, -0.12461604132560698, 0.19712909211314375, -0.9118894724128463, 0.5936216769296193, -0.6245496908127915, -0.0885658625990396, 0.5024590294927819, -0.359849052850199, -0.44221707391372017, 0.7597068438568274], [-0.8861844956441345, -0.552506880277493, 1.1162048133014446, 0.12824324649650476, 0.022135192436637686, -0.43628011529196564, -0.4316670735342512, 0.31023779207171226, 1.0688231682081073, -0.7118879910705872, 1.113452536460528, 0.24241941762552455, -0.617578597740708, 0.5816201899829856, 0.40623670362109077, -1.0531652509231406], [0.5980650494801307, 0.6267695371193736, -0.8603023891077687, -0.33537989826227965, 0.1878104054513418, 0.6746589196410665, 0.9068817864675727, -0.14876478231432078, -0.7246048442415906, 0.23375479110008016, -0.8753638663732112, -0.4410617652035716, 0.19954458475623219, -0.9587703811151058, -0.3605586843051662, 0.5355826576612632], [0.7774999228696734, 0.28590695354157325, -0.4828461387281389, -0.525590376371666, 0.40680231964063485, 0.31131715448003916, 0.6311658176589199, -0.14039402268814727, -0.6276162749022683, 0.3620300029851928, -0.914366716892599, -0.703941665477688, 0.7101978324998032, -0.6573283916538709, -0.19167090683088872, 0.4850395853404144], [0.08170882286448825, 0.39701815007820174, -0.9342929943391116, -0.4367848932697381, 0.18610490103533583, 0.179376791182888, 0.7947214550197357, -0.5145863920857026, -0.2917756604857119, 0.550189121923564, -0.34030664821438117, -0.4701175471583804, 0.3966148139315503, -0.5362082608542852, -0.440766412492744, 0.8644927947493908], [0.5063699427403313, -0.10240668995484932, 0.06645467691159784, 0.08963013910587206, 0.26797937403891287, 0.46542577836637905, -0.18765851832711647, -0.246738769263143, 0.08770930319426722, -0.21105606151680725, -0.33651888244524675, -0.3934836989707317, -0.34475755115507495, -0.07143651611791688, 0.045171388706914645, -0.06739516257478007], [-0.8417160962173065, -0.2399412645111567, 0.7693523395280677, 0.047776644558884515, -0.03527872432538743, -0.1339514156358446, -0.2885331303441348, 0.30261198462983113, 0.661192206031239, -0.2454975065544313, 0.5483410104507156, 0.21082839360711383, -0.34906530573357214, 0.8844185967116679, 0.6563131554460564, -1.0901105371432427], [-0.6381765084650061, -0.3822239183025155, 0.8916916261222003, 0.2612358182436502, -0.20437868833314005, -0.589886247876682, -0.18549674540503372, 0.44159798951249857, 0.966715802856854, -0.3807763812049443, 0.617537221930246, -0.0831971386282081, -0.6572511273483784, 0.5986299194764062, 0.30279150489316814, -0.6855800313810327], [0.05219215268577965, 0.6112057060772234, -0.4835156815005898, -0.19645256288828172, 0.4318766745769661, 0.7168205500183631, 0.4864313477938728, -0.45343626898137657, -1.0856716303223592, 0.6586184421124903, -0.7668164794793701, -0.24326373306044047, 0.684560858595615, -1.0051341313316215, -0.4673018409158862, 0.6471984712268282]], "biases": [0.011506634094584, 0.02839671405624166, -0.029606207318166402, 0.10087855275039112, -0.025932230732651794, -0.1455079964131867, 0.05981983547513794, -0.06056959333116065, 0.20187161839692178, 0.13433307919806825, -0.1042683571150556, 0.029586774679560293, 0.05085200767320513, -0.15710023851945001, 0.1565056695426236, -0.17593996616777627]}, {"weights": [[1.2125702173766377, -0.5271153074057398, -2.609570792433975, -0.9704354778619905, -0.7217883837839484, 1.4527463503669633, -0.4462493982927377, 1.1373950476052292, -1.908126033577459, 1.9018494764237155, 1.714686907251227, 1.1267632285888276, 0.11696448384784464, -1.3592090373527312, -1.575994838222369, 1.9587790210786014], [-1.3327735513127312, 0.07197699430936369, 2.9976428623845335, 0.9600071234369184, 0.9674244851601751, -1.1398448303705189, -0.1110250106536372, -1.073363400389362, 1.9596960559138297, -1.2429747145348036, -1.052400826158679, -1.4112181090131597, -0.11229308775555537, 1.6388658660742497, 1.3004716057525953, -1.1869370485339685]], "biases": [-0.04387938889543248, 0.0438793888954349]}], "means": [14.036749450549458, 19.16942857142857, 91.30101098901098, 646.3925274725273, 0.09631446153846142, 0.10279531868131862, 0.08503131582417577, 0.04730564615384611, 0.1812586813186815, 0.0627919120879121, 0.401786593406593, 1.2163573626373632, 2.8367553846153863, 40.06503736263736, 0.0070851670329670395, 0.025134830769230766, 0.03110941230769228, 0.01168316043956044, 0.02060302857142859, 0.003765091208791205, 16.141734065934056, 25.496571428571446, 106.26301098901102, 868.4828571428568, 0.1320549010989011, 0.24874670329670345, 0.26143682637362625, 0.11198138241758247, 0.28951626373626377, 0.08382382417582417], "stds": [3.482944614829845, 4.32327039707403, 23.962108253343114, 348.7200196719216, 0.014074597415285696, 0.05227466020151787, 0.07760719057210037, 0.03739580346345016, 0.026902160671784917, 0.007270331890255717, 0.2819976924082182, 0.5468817212918659, 2.0752442354471734, 47.71185317257382, 0.003128152101114071, 0.018043669396800393, 0.031509885176132894, 0.006215489130237885, 0.008584389688909273, 0.002552797863127563, 4.794921370706414, 6.07870595168871, 33.25865780613842, 567.9594455153276, 0.022495429219275834, 0.15497206682336456, 0.20339719007536033, 0.06448048306596955, 0.06218735569244246, 0.018686174047688683]}